/* Example convolution layer weights and biases*/
#include "conv_layer_weight.h"

const float conv1_weights[CONV1_NO_OUTPUTS][CONV1_NO_INPUTS*CONV1_FILTER_HEIGHT*CONV1_FILTER_WIDTH] = {
{-0.004986, -0.000302, -0.006251, 0.012239, -0.003179, -0.014400, 0.014330, 0.001190, -0.019855, -0.000242, -0.000194, 0.007422, 0.002732, -0.000695, 0.012462, -0.011020, 0.001040, -0.018399, -0.011108, 0.013149, 0.000486, 0.016509, 0.004476, -0.009427, 0.006196},
{-0.002981, 0.006202, -0.018972, -0.000861, 0.009430, -0.000755, -0.007459, -0.012141, -0.005879, 0.023684, -0.012460, 0.005825, -0.009604, -0.017368, 0.003586, 0.009112, -0.014380, 0.009202, -0.003520, 0.006717, -0.006561, 0.004608, 0.007243, -0.015047, -0.020238},
{0.001342, 0.013830, 0.017649, -0.003051, 0.009913, 0.001591, 0.007946, 0.012767, -0.001122, 0.009533, -0.000889, -0.011549, 0.014760, 0.007279, -0.012881, 0.007104, 0.002564, -0.001624, -0.012530, 0.011416, 0.007014, 0.008040, -0.007110, -0.007270, 0.007792},
{0.010710, 0.005460, 0.001211, 0.012132, -0.010460, -0.000770, -0.003583, -0.007929, -0.005168, -0.005349, 0.006400, 0.003433, 0.003272, 0.004735, -0.011106, -0.000606, 0.008159, -0.006851, -0.003479, -0.004256, -0.009324, -0.009524, -0.005961, 0.007381, -0.004048},
{0.009031, -0.001520, -0.013327, -0.012779, -0.013992, 0.009987, 0.009338, 0.009757, -0.008400, -0.002170, -0.003849, -0.002859, -0.011957, 0.000761, 0.000989, -0.006405, -0.005328, 0.004591, 0.008901, 0.005884, 0.006430, 0.001008, -0.012650, -0.007697, -0.019449}
};

const float conv1_bias[CONV1_NO_OUTPUTS] = {
0.000000, 0.000000, 0.000000, 0.000000, 0.000000};

