/* Example convolution layer weights and biases*/
#include "conv_layer_weight.h"

const float conv_layer_weights[NO_OUTPUT_MAPS][NO_INPUT_MAPS*FILTER_HEIGHT*FILTER_WIDTH] = {
{0.003643, 0.013430, 0.003573, 0.003879, -0.003374, 0.027098, 0.001575, 0.018834, -0.000676, -0.003912, -0.006284, 0.026050, -0.003133, 0.008030, -0.004990, -0.000865, 0.016003, 0.005989, -0.017871, -0.013447, -0.008156, 0.007060, -0.006740, 0.005863, 0.004074, 0.000160, 0.009106, 0.017668, 0.007649, 0.001578, -0.004610, 0.016233, -0.009595, -0.010892, -0.010962, 0.001806, 0.010454, 0.009658, 0.002642, -0.007444, -0.015763, -0.005258, 0.010163, -0.008414, -0.004011, -0.015491, 0.023314, 0.011604, -0.000715, -0.003303, -0.004590, 0.007816, 0.006739, 0.003356, 0.006559, -0.012584, -0.014231, 0.019532, -0.005486, -0.014594, -0.003235, 0.001495, 0.004372, 0.005052, -0.006934, 0.008628, 0.000832, -0.012479, 0.006010, -0.004685, 0.009718, -0.006080, -0.010228, -0.006075, -0.000028},
{-0.002070, 0.021281, 0.015465, -0.002604, 0.004569, 0.006522, -0.021849, 0.002212, -0.006518, 0.001488, 0.012187, 0.008546, 0.012529, 0.001467, -0.008652, -0.008188, -0.025414, 0.013971, 0.006300, -0.010802, -0.014843, -0.009574, 0.022693, -0.000849, 0.008391, -0.000333, 0.012297, 0.005733, 0.014001, -0.011521, 0.003753, 0.007420, 0.004246, -0.002947, -0.008542, -0.009525, -0.025215, -0.014957, 0.008599, -0.011372, -0.009076, -0.000992, -0.011707, -0.011537, -0.007326, -0.005802, -0.017165, -0.003477, -0.003628, 0.005910, 0.018993, 0.001228, 0.024927, 0.001849, 0.001858, 0.019573, 0.009790, -0.001561, 0.006703, -0.003500, -0.011949, -0.001957, 0.017588, -0.019997, 0.007924, 0.008212, -0.014645, -0.007170, 0.000406, -0.010711, 0.015502, -0.015506, 0.001658, 0.004881, 0.004829},
{0.008658, 0.004498, -0.003427, 0.002067, 0.021587, -0.006402, 0.007655, 0.009130, -0.018793, -0.000712, -0.005749, -0.013043, -0.010591, 0.002759, -0.000433, 0.021538, -0.015042, -0.015721, -0.001751, 0.008017, -0.003108, -0.015379, -0.011999, 0.004034, -0.011731, -0.021145, -0.005247, 0.009694, -0.011840, -0.002691, -0.007474, -0.016850, 0.022259, 0.008890, 0.001622, -0.002423, 0.001957, -0.003244, -0.004855, -0.014849, -0.007402, 0.005629, 0.011617, -0.005001, 0.013675, -0.004351, 0.000321, 0.001991, 0.012267, -0.015350, 0.004675, -0.002127, -0.027587, 0.003233, -0.009834, 0.008587, 0.006316, -0.006923, -0.000160, 0.001462, -0.012108, -0.003394, -0.003206, -0.010157, -0.009377, -0.009900, 0.006712, -0.026959, -0.003334, 0.003578, 0.006539, -0.000656, 0.005426, 0.009818, -0.004014},
{-0.011118, -0.011020, 0.011614, -0.004855, -0.001155, -0.007988, -0.017154, -0.001652, 0.009099, 0.005245, 0.028265, 0.009975, -0.008466, -0.006025, 0.011862, -0.009501, 0.007634, -0.013450, -0.008836, -0.000435, -0.010106, -0.007312, 0.001810, -0.004946, 0.004192, 0.011665, -0.016098, -0.002525, -0.012144, 0.000913, -0.014897, -0.001572, 0.008546, 0.003546, 0.005816, -0.019756, -0.013399, 0.001486, -0.019723, -0.017518, 0.005009, 0.014094, -0.024037, -0.003327, -0.001404, 0.002146, -0.002793, 0.006456, -0.000425, -0.001282, -0.002542, 0.017415, -0.004472, -0.002323, 0.007234, -0.009844, 0.003571, 0.007158, -0.000956, 0.014176, -0.007607, -0.002033, -0.005050, 0.002242, 0.000803, -0.033674, 0.001439, -0.016631, -0.004713, -0.001344, -0.010855, 0.008759, -0.004610, 0.003794, 0.000192},
{0.005243, -0.011724, 0.012450, -0.002353, 0.003734, -0.016749, -0.009104, 0.003402, -0.008673, -0.001706, 0.003179, 0.006149, 0.008232, -0.009254, -0.002548, -0.008202, -0.005330, 0.020534, -0.009289, 0.006162, 0.011200, -0.011841, -0.011046, -0.025827, 0.002310, 0.007514, -0.026564, -0.000031, -0.009152, 0.018750, -0.002752, 0.010060, -0.016698, 0.008221, -0.010841, 0.004110, 0.016352, 0.008510, -0.009204, 0.013514, -0.021691, -0.011628, -0.000609, 0.012322, -0.001368, 0.001638, 0.005505, 0.008341, 0.006690, -0.017485, 0.003534, 0.018704, -0.014310, -0.006795, -0.004327, -0.011850, 0.003934, 0.001257, -0.001497, 0.004483, -0.004490, 0.000414, 0.010575, 0.000598, 0.017520, 0.002122, -0.014885, 0.006394, -0.010255, -0.000034, 0.021253, 0.002783, -0.003709, -0.000795, -0.009255}
};

const float conv_layer_bias[NO_OUTPUT_MAPS] = {
0.000000, 0.000000, 0.000000, 0.000000, 0.000000};

