/* Example convolution layer weights and biases*/
#include "conv_layer_weight.h"

const float conv1_weights[CONV1_NO_OUTPUTS][CONV1_NO_INPUTS*CONV1_FILTER_HEIGHT*CONV1_FILTER_WIDTH] = {
{0.001443, 0.009329, -0.017325, 0.006621, 0.014677, -0.003297, 0.000181, -0.004592, -0.001913, -0.002229, 0.000876, 0.023328, 0.009447, -0.002735, -0.002121, -0.014059, 0.012561, -0.010368, 0.016693, 0.002343, -0.002382, -0.015990, -0.004032, 0.001813, -0.011350, -0.005430, -0.008273, 0.007037, -0.007739, 0.000378, 0.011284, -0.022173, 0.012937, 0.009686, -0.003228, -0.005860, 0.003902, -0.007442, 0.011837, 0.001566, 0.007765, -0.006706, -0.014322, -0.006277, 0.010505, -0.002828, 0.002294, -0.003367, -0.007072, 0.013746, -0.005401, 0.004945, -0.005466, 0.001661, 0.001063, 0.008792, -0.003894, 0.000062, -0.008830, -0.007970, -0.015122, 0.007683, -0.015014, -0.005888, 0.008516, -0.007775, 0.012479, 0.008262, 0.007986, -0.008554, -0.009547, 0.002270, -0.001202, 0.000353, 0.004012},
{0.025330, 0.006287, 0.009715, 0.008783, -0.014313, 0.007401, 0.006840, -0.017437, 0.007492, 0.005875, -0.006900, -0.000646, 0.012990, 0.011480, 0.008542, -0.009319, 0.001553, -0.003829, 0.005770, 0.001593, -0.015297, -0.006085, -0.006941, -0.017179, -0.021972, -0.002941, 0.006795, 0.017133, -0.003493, -0.001716, -0.009167, 0.002070, -0.007069, -0.004155, 0.009974, 0.002968, -0.008048, 0.009233, -0.005047, -0.006357, -0.003388, -0.000401, 0.001097, -0.015525, 0.001602, -0.003103, -0.002370, -0.002130, 0.004597, 0.006660, 0.001023, -0.000392, -0.008169, 0.012217, 0.003002, -0.002064, -0.001946, -0.008196, -0.008891, -0.000704, -0.009027, -0.013168, 0.005484, -0.012610, -0.007132, 0.005684, 0.008609, -0.000538, -0.001313, 0.000068, 0.005005, 0.001130, 0.006656, 0.015480, 0.008148},
{-0.013473, -0.002001, -0.000225, -0.010473, -0.003178, -0.013545, 0.004732, 0.011265, 0.004556, 0.009025, 0.001500, 0.007328, 0.009858, -0.003015, 0.011330, -0.002260, 0.004399, -0.008309, 0.004125, 0.007399, -0.008160, -0.014037, -0.000233, -0.014379, -0.005457, -0.006567, -0.018127, -0.000159, -0.006907, -0.009627, -0.006728, 0.014810, 0.015133, -0.002195, -0.020989, 0.006906, -0.006570, -0.015629, -0.002928, 0.000744, -0.005205, -0.009223, -0.016207, -0.005830, 0.004949, -0.004879, -0.014163, -0.007622, -0.009906, 0.000945, 0.008152, 0.006382, -0.000041, -0.007961, 0.008713, -0.004738, 0.013346, 0.016211, 0.007297, -0.005853, -0.012866, 0.014148, -0.001343, 0.005328, -0.003221, 0.010166, -0.003422, -0.001214, 0.002492, -0.001061, -0.001919, -0.001286, -0.000339, -0.012878, 0.000193},
{-0.014506, 0.021770, 0.001213, -0.023907, 0.016526, 0.011682, 0.009655, -0.012040, 0.013147, -0.011951, 0.000929, -0.011237, -0.023135, -0.017071, -0.006157, 0.014241, -0.010349, -0.003760, 0.005804, 0.015220, -0.001829, -0.006951, 0.010028, 0.012888, 0.003794, -0.008198, -0.011379, 0.009586, -0.009664, -0.006824, -0.007659, 0.007004, 0.009444, 0.005240, -0.005276, 0.000158, -0.007728, 0.023316, 0.009390, -0.001023, -0.002459, 0.013360, -0.008980, 0.015141, 0.018450, 0.013744, -0.015370, 0.011704, 0.007139, 0.008981, -0.003710, -0.001423, 0.001191, 0.011504, 0.008484, -0.000045, -0.001954, 0.010323, 0.000819, -0.001244, -0.005731, 0.006078, 0.017314, 0.003678, -0.006648, 0.006693, -0.005732, -0.006618, 0.005705, -0.018313, -0.002298, -0.011213, -0.009366, -0.001493, -0.011275},
{0.006797, -0.003926, 0.013491, 0.006773, -0.011024, 0.010184, 0.004181, -0.003122, -0.005659, -0.001951, -0.013816, -0.002375, -0.001666, -0.003742, -0.002711, 0.007570, 0.015072, 0.002718, -0.007709, -0.008255, -0.001241, 0.002227, 0.007577, -0.003215, -0.000231, 0.000337, -0.006709, -0.013827, -0.004356, -0.014829, 0.006446, -0.013284, 0.011160, 0.004503, 0.017513, 0.004736, 0.012231, 0.014070, 0.010497, -0.005071, 0.012941, -0.007947, -0.001614, -0.000432, 0.011964, 0.007985, 0.008434, 0.000508, 0.007421, 0.009947, 0.007647, -0.009468, -0.004209, 0.009846, -0.006228, -0.008874, -0.000241, 0.007197, -0.021820, -0.015358, 0.004238, 0.009223, 0.006043, -0.004631, 0.000916, 0.008523, -0.017737, -0.010169, -0.005761, 0.004574, -0.001023, 0.008428, 0.001259, -0.002846, -0.005399}
};

const float conv1_bias[CONV1_NO_OUTPUTS] = {
0.000000, 0.000000, 0.000000, 0.000000, 0.000000};

