/* Example inner-product layer weights and biases*/
#include "ip_layer_weight.h"

const float ip_layer_weights[NO_OUTPUT][NO_INPUT] = {
{0.002877, -0.020505, 0.033799, 0.023420, -0.021803, 0.057347, -0.060036, -0.008430, -0.052078, 0.021807, 0.030161, -0.017415, 0.039582, 0.017122, -0.043468, 0.038583, -0.024650, 0.031581, -0.026187, 0.055313, -0.026280, 0.038744, -0.018605, 0.001602, 0.025634, -0.051473, -0.021701, -0.058909, -0.015525, 0.002185, -0.045840, 0.026498, 0.054529, 0.048923, -0.026492, -0.032088, -0.025214, 0.051032, 0.020867, 0.048407, 0.002036, 0.035871, -0.051183, -0.029398, 0.035217, 0.000165, 0.032489, -0.011871, -0.049829, 0.029627, -0.050817, -0.006394, 0.049732, 0.052517, 0.032154, -0.036460, -0.049364, -0.045484, 0.025866, 0.037299, -0.046053, -0.011495, -0.015801, -0.014945, 0.025204, 0.007846, -0.058440, 0.033066, 0.032618, 0.024349, 0.038008, -0.050947, -0.028169, -0.012055, -0.039818, -0.042702, -0.001333, 0.013882, -0.007869, 0.027572, -0.046963, -0.042710, -0.008851, 0.013696, 0.060920, 0.000075, -0.045940, -0.014565, -0.035280, 0.012776, -0.053217, -0.036661, 0.020434, -0.012090, -0.037089, -0.033875, 0.008052, -0.050044, -0.011638, -0.044576, -0.025172, -0.015317, 0.008231, 0.045480, -0.002060, 0.055787, -0.034307, 0.012921, 0.040767, -0.027055, 0.017530, 0.036411, -0.022173, 0.049444, -0.040528, -0.035405, -0.002670, -0.011074, -0.042583, 0.046101, 0.019830, 0.008485, -0.028201, -0.017896, -0.038171, -0.044739, 0.036316, -0.013357, -0.060680, -0.047492, 0.013399, 0.007469, 0.047695, -0.000440, -0.029603, -0.021554, -0.041605, -0.049666, -0.021719, 0.007321, -0.038597, 0.019854, -0.052850, 0.045227, -0.050535, -0.056399, -0.021199, 0.014413, 0.060818, -0.046884, -0.032745, -0.055778, 0.006355, 0.031510, 0.017313, -0.056518, 0.008838, -0.031999, 0.033644, -0.042718, -0.007523, -0.055324, -0.025783, 0.054239, -0.018397, -0.036533, 0.037099, 0.048300, 0.013691, 0.030234, -0.017417, 0.033323, -0.013035, -0.035293, 0.010504, 0.061370, 0.038726, -0.053292, 0.004413, 0.013786, -0.004498, 0.008971, 0.060344, 0.014722, 0.009283, 0.035585, 0.031225, 0.011476, -0.001740, -0.021295, -0.049823, 0.022912, -0.023737, -0.060477, -0.042610, -0.038543, -0.054928, 0.000875, -0.044570, 0.034270, -0.001781, -0.019007, 0.046755, -0.000569, -0.060824, 0.032143, 0.013576, 0.055073, -0.061437, -0.019774, 0.035694, -0.015413, 0.022444, 0.015845, 0.036962, -0.049207, 0.027104, -0.004090, -0.061404, -0.046248, -0.009164, 0.055534, -0.060621, 0.056676, -0.058030, -0.040754, -0.047015, 0.019977, -0.026131, -0.049085, -0.000704, 0.059549, 0.002468, -0.044897, -0.021108, 0.047732, -0.051231, -0.057013, 0.006240, -0.057767, 0.042541, -0.045104, -0.015917, 0.030937, -0.021036, -0.005202, 0.013786, -0.020002, 0.032597, 0.028791, 0.018654, -0.019889, 0.004480, 0.058852, 0.031726, 0.051690, 0.041281, 0.028170, 0.034781, -0.028953, -0.024657, 0.034241, -0.008972, 0.009884, 0.027926, -0.060528, -0.048120, -0.006079, 0.004591, -0.006808, -0.028195, -0.014764, -0.060468, 0.055487, -0.047400, -0.052006, -0.054960, -0.023243, -0.055766, 0.035534, -0.039072, 0.053920, -0.012847, -0.040736, 0.047429, -0.059575, -0.031284, -0.003474, 0.040079, 0.037175, -0.014523, 0.009497, -0.038118, 0.037568, -0.037610, -0.000505, 0.035014, 0.003503, -0.015888, -0.019222, 0.037469, -0.004339, 0.015042, 0.051099, -0.044827, -0.004751, 0.053026, 0.025313, -0.032385, -0.051692, 0.037283, -0.018065, 0.058151, -0.029854, -0.018703, -0.018937, -0.005019, -0.040484, -0.042654, -0.050162, -0.033452, 0.044284, 0.041024, 0.021932, 0.060534, -0.023086, 0.011639, 0.056039, -0.024520, 0.004721, 0.025877, 0.057576, 0.006297, -0.010169, 0.034956, -0.002549, 0.047633, 0.003765, -0.033217, -0.023066, 0.007304, 0.030319, 0.015739, 0.001046, 0.046098, -0.017876, -0.051954, -0.045839, 0.055121, 0.038541, 0.032192, -0.020027, -0.010493, 0.019627, -0.046590, -0.043625, 0.034521, -0.028160, 0.001960, -0.020165, 0.037957, 0.018728, -0.018034, 0.022500, 0.041819, -0.047556, 0.060273, -0.055934, 0.046432, 0.043705, 0.061572, 0.031073, -0.025384, -0.060954, -0.037396, 0.051431, -0.027601, 0.023659, -0.004720, -0.004186, 0.048501, 0.024498, -0.016941, 0.024899, -0.029873, 0.042383, 0.006339, 0.027741, -0.017419, -0.025020, 0.032211, -0.036749, 0.061370, 0.011064, 0.008292, 0.046362, 0.024346, -0.010404, -0.005050, -0.046124, -0.027342, 0.004477, -0.028599, -0.044784, 0.055917, -0.052538, -0.059348, -0.015283, 0.051818, -0.012749, 0.051419, -0.002305, -0.020320, -0.033935, -0.036875, 0.051231, 0.004352, 0.060212, 0.014884, 0.044482, 0.050146, 0.058955, -0.003544, 0.055631, 0.036094, 0.039764, 0.005846, -0.024762, -0.050051, 0.030506, 0.014717, -0.041466, 0.015946, 0.039798, 0.001785, 0.052217, 0.050228, 0.018439, -0.006721, -0.002887, -0.021615, -0.023556, -0.010223, 0.000527, 0.040182, 0.061504, -0.010253, 0.048050, -0.022350, -0.053426, -0.052821, 0.034965, -0.019742, 0.040093, -0.008377, 0.024783, 0.015502, 0.003385, -0.056151, 0.028736, -0.008224, 0.052124, 0.035869, -0.058385, 0.036660, 0.019546, 0.050587, -0.044530, -0.003914, 0.036285, -0.019338, 0.013973, 0.022475, -0.009934, 0.011775, -0.027780, 0.022305, -0.044744, 0.020233, -0.059445, -0.002170, 0.057260, 0.005157, 0.051021, -0.019832, 0.026286, 0.026102, 0.008888, -0.023727, -0.001786, 0.032423, 0.058283, -0.028149, 0.056308, 0.005410, 0.006395, -0.007968, 0.009083, -0.028149, 0.007251, 0.030149, -0.001998, 0.007467, 0.042348, 0.035615, -0.040865, 0.023664, -0.002122, 0.010586, 0.055321, -0.061669, -0.021270, -0.060344, 0.020013, -0.034591, -0.025693, -0.024313, -0.014603, -0.042673, -0.026813, -0.048733, -0.035972, 0.029573, -0.027708, 0.058876, 0.024900, 0.006933, -0.047020, 0.016788, -0.049272, 0.024197, 0.026073, 0.035404, -0.040904, 0.048862, 0.028235, -0.039143, -0.018339, 0.029075, 0.034241, 0.030627, -0.035056, -0.057815, -0.026681, -0.005768, -0.059496, 0.055200, -0.018538, -0.045648, 0.031443, -0.059061, -0.018766, 0.001001, 0.052904, -0.020724, -0.044497, 0.055467, -0.006044, -0.053214, 0.010751, -0.010949, 0.017836, 0.016178, 0.031852, -0.022284, 0.014088, 0.015090, 0.033362, -0.043460, -0.006254, -0.000559, 0.061620, 0.020479, -0.024635, -0.028338, 0.054993, 0.056138, -0.016513, 0.059327, 0.049735, 0.024935, 0.048877, -0.041974, 0.038269, -0.013313, 0.000368, -0.010303, 0.000336, -0.004308, 0.026177, 0.024796, -0.027033, 0.003617, -0.050193, -0.050647, -0.057490, 0.034921, -0.047766, 0.010167, 0.007059, -0.019763, -0.045953, -0.013873, -0.012244, -0.022663, -0.032417, -0.050045, 0.054397, -0.016443, 0.034845, 0.027561, 0.051595, -0.020633, 0.034150, -0.006170, -0.045194, -0.008825, 0.048955, -0.023422, -0.054121, 0.035988, -0.017561, 0.009519, -0.034060, 0.037714, -0.044897, 0.046458, -0.052185, 0.025338, -0.051795, -0.058639, -0.047029, 0.023006, -0.001242, 0.033570, 0.000344, 0.060398, -0.048070, -0.056759, -0.014029, 0.017512, -0.037952, 0.031886, 0.056156, -0.010014, 0.005358, 0.033067, -0.019212, 0.042359, 0.008065, -0.013811, 0.002212, -0.048439, -0.023947, 0.038722, 0.019748, -0.032067, -0.050190, -0.019474, -0.030817, 0.009609, 0.018082, 0.000869, -0.011470, -0.026280, -0.053218, -0.025466, -0.007427, 0.021071, 0.017904, 0.056745, -0.028905, 0.011335, 0.000568, 0.027953, -0.050513, 0.034862, 0.030192, -0.002721, -0.056117, -0.055086, 0.024850, 0.028398, 0.008696, -0.040743, -0.011677, 0.044790, 0.017725, -0.037117, 0.002804, -0.004097, -0.013502, -0.047206, -0.039705, -0.007264, 0.049390, -0.000560, 0.035327, 0.054813, -0.022702, 0.029378, -0.004408, 0.060162, 0.023627, -0.003359, -0.042647, 0.031696, 0.014249, 0.047631, -0.038937, 0.032405, 0.017066, 0.006227, 0.004641, -0.018397, -0.052179, 0.016358, -0.043672, -0.025515, 0.030844, 0.060320, -0.026184, -0.056981, -0.006092, -0.003665, -0.018269, 0.006837, -0.036484, 0.056134, -0.044186, -0.045003, 0.047473, -0.005539, 0.021870, 0.054851, 0.060936, 0.015706, 0.048273, 0.009558, -0.015080, 0.016785, -0.055024, -0.047955, -0.026033, 0.003431, 0.061496, 0.016754, -0.004023, -0.061812, -0.007147, -0.000066, -0.032872, -0.024577, 0.024136, 0.023119, -0.012838, -0.030292, -0.044165, -0.043892, 0.025898, 0.019856, -0.026886, 0.054467, -0.018930, -0.000014, 0.010758, 0.038462, -0.061428, 0.049884, -0.038096, -0.028202, 0.005486, -0.005310, -0.001872, -0.048101, -0.043825, -0.058117, 0.044663, -0.019263, 0.017934, -0.057913, 0.053287, -0.020086, 0.021268},
{0.028179, -0.048161, -0.034279, -0.021083, 0.019311, -0.048436, 0.020008, -0.019731, -0.039889, -0.016945, 0.046877, 0.048590, -0.045527, -0.034021, 0.002320, 0.038554, 0.023093, -0.054749, -0.036151, -0.036636, -0.047217, -0.020055, 0.029706, 0.040599, 0.029915, 0.055763, 0.023862, 0.036461, -0.043873, 0.016965, -0.028478, -0.005832, -0.031098, 0.021893, 0.018226, -0.054342, -0.019357, 0.032510, 0.053419, 0.025420, -0.014465, 0.000928, -0.025947, -0.040026, 0.032132, -0.039669, -0.043789, -0.021756, 0.011694, -0.034140, 0.013212, -0.035713, 0.056153, 0.008678, 0.003053, 0.038070, 0.056722, -0.016701, -0.012647, 0.053929, 0.047690, 0.009110, -0.034254, 0.014780, 0.021511, -0.025614, 0.020319, -0.027744, 0.041287, 0.014850, 0.018434, 0.060952, 0.026693, -0.035091, 0.009402, 0.025578, 0.050497, -0.007742, -0.024132, 0.059906, -0.003861, 0.048007, -0.045800, -0.045694, 0.056080, 0.010813, -0.037846, -0.053174, 0.059979, 0.010454, 0.054886, -0.020893, 0.055778, 0.036086, -0.044280, 0.035199, -0.021304, 0.029197, 0.050101, -0.045126, 0.008467, -0.003360, 0.055211, -0.006272, -0.034656, -0.043236, 0.008707, -0.039165, -0.061018, 0.055960, -0.020187, -0.009947, 0.061678, 0.013937, -0.022651, -0.037804, 0.059210, -0.002617, -0.061556, -0.002154, 0.039512, -0.020297, 0.031038, 0.007227, 0.031292, -0.024617, -0.003319, 0.000308, -0.030000, 0.050259, 0.017962, -0.048393, 0.054460, 0.030572, 0.028131, 0.048081, 0.042944, 0.041613, 0.007879, -0.023303, 0.038215, -0.060011, -0.045118, 0.000936, 0.024161, -0.004734, -0.035563, 0.036876, 0.032996, 0.017624, 0.058890, 0.043933, 0.031383, -0.001861, 0.061692, 0.010590, -0.051098, 0.005690, 0.007396, 0.009651, -0.060176, 0.007367, -0.007162, 0.055420, -0.008255, 0.041743, 0.055475, -0.040957, -0.054012, 0.056499, 0.061191, 0.050373, -0.060115, 0.060330, -0.018190, -0.011427, 0.045901, -0.061597, 0.015297, -0.008889, 0.045377, -0.030118, 0.021302, -0.016311, -0.029130, 0.052809, 0.027082, -0.013321, -0.059090, 0.037441, -0.036535, 0.010532, -0.010565, 0.024539, -0.031675, 0.028806, 0.034019, -0.012820, 0.015643, 0.038138, 0.043494, -0.012926, -0.029237, -0.059192, 0.015249, -0.009162, 0.058154, 0.025640, 0.059319, -0.026252, 0.008579, -0.036695, -0.031760, 0.042870, 0.017477, 0.045660, -0.021965, -0.009570, -0.016994, -0.057155, -0.051761, 0.050404, -0.045625, -0.004183, -0.018747, -0.001050, 0.031137, -0.036987, -0.001749, 0.035993, -0.000765, 0.001684, -0.034200, 0.022299, 0.010389, 0.050277, -0.018176, -0.025668, 0.007494, -0.001934, -0.034825, 0.033924, 0.049582, 0.030706, -0.011450, -0.051572, 0.007483, -0.057226, 0.049837, 0.018863, -0.054264, 0.038903, -0.048413, -0.028181, 0.040745, -0.044062, -0.007482, -0.015687, -0.046373, -0.006448, 0.009224, -0.046319, 0.014855, 0.052084, 0.058686, -0.019493, 0.015705, 0.032085, 0.032432, 0.032373, -0.040424, 0.046596, -0.041688, -0.016244, -0.001405, -0.050530, -0.008246, 0.051060, -0.040163, -0.017483, 0.012596, -0.033435, 0.041037, 0.054983, -0.031727, 0.029398, 0.027675, -0.033750, 0.046558, -0.008523, -0.026804, 0.043532, 0.004551, 0.046336, 0.052644, -0.014548, 0.036740, -0.043540, 0.059544, 0.038344, -0.047364, -0.036408, -0.050785, -0.026147, -0.036869, 0.050549, 0.025929, 0.034724, -0.039660, 0.060197, -0.013801, -0.053339, -0.024079, -0.054144, -0.027519, 0.048839, -0.012889, -0.047735, 0.031304, 0.015621, -0.032857, -0.039343, -0.025318, -0.059035, 0.002855, 0.059417, 0.006140, 0.059065, 0.054548, -0.008051, 0.011327, -0.032801, -0.000117, -0.023881, 0.027536, -0.040348, 0.002466, 0.041801, -0.055450, 0.022493, 0.048432, -0.058966, -0.033855, -0.042043, 0.051168, 0.053092, -0.033357, 0.035557, 0.050017, 0.027922, -0.030645, 0.021900, -0.026964, -0.052366, -0.051233, 0.017679, 0.041048, 0.040784, 0.016409, 0.025549, 0.020026, -0.057211, 0.041775, -0.005897, -0.026569, 0.004886, 0.029692, -0.031257, -0.035605, 0.020003, 0.003555, -0.040460, 0.053932, 0.015840, -0.041071, -0.041003, -0.012218, -0.028147, -0.034709, -0.015741, -0.019981, -0.050032, -0.046896, 0.004745, -0.027257, 0.000410, -0.035903, 0.002979, -0.003607, 0.032150, -0.036090, -0.030283, 0.021757, -0.004589, 0.057798, 0.005921, -0.042345, -0.036763, -0.038401, 0.005291, 0.035733, 0.024888, 0.056427, 0.027242, -0.021058, 0.003468, 0.011739, 0.024715, -0.002400, -0.018571, 0.043333, -0.041568, -0.050439, -0.031989, 0.058547, -0.030748, -0.015901, -0.021365, -0.001275, 0.028924, 0.014374, 0.001215, -0.010904, -0.044689, -0.009721, 0.017724, -0.044718, 0.047510, 0.003193, -0.026055, -0.050980, 0.008567, -0.010589, -0.012767, -0.027806, -0.029887, 0.042941, 0.006226, -0.036993, -0.044274, 0.039679, 0.058288, 0.010457, 0.054043, -0.050242, -0.046775, -0.058812, -0.015476, 0.061751, 0.036054, -0.046717, 0.052817, 0.058523, 0.054966, -0.021000, 0.048367, -0.046364, 0.012331, -0.009132, -0.002144, -0.013630, -0.038753, 0.044449, -0.003966, 0.043265, 0.029866, -0.021379, -0.040388, 0.013936, 0.009031, 0.058724, -0.046057, 0.057036, -0.003937, 0.036376, -0.000662, 0.041860, -0.055958, 0.009102, -0.013390, -0.017787, 0.053117, -0.036671, 0.048369, -0.025486, 0.004104, 0.048655, 0.011525, -0.014266, -0.026324, -0.043031, 0.011893, -0.058758, 0.027154, -0.011130, 0.008574, -0.040636, 0.057464, 0.005385, 0.014838, -0.048123, -0.008487, -0.053929, 0.039817, -0.030995, -0.016729, -0.014035, 0.032478, -0.038311, -0.034097, 0.014803, 0.040746, -0.044003, 0.024702, -0.006954, -0.012134, -0.039528, -0.060235, -0.038544, 0.038567, 0.007522, -0.018945, 0.032963, -0.052679, 0.016674, 0.010129, 0.057840, 0.011057, 0.022128, 0.010409, -0.038599, 0.036271, 0.027014, -0.046142, 0.061279, -0.025444, 0.013627, 0.030940, -0.056224, -0.033452, 0.001646, -0.028813, -0.025014, 0.030153, 0.036235, -0.005190, 0.029434, 0.044234, 0.027586, -0.000763, 0.024329, -0.024944, 0.040296, 0.042327, -0.045142, 0.048413, 0.028028, -0.003179, 0.029811, -0.011312, -0.020085, 0.033098, 0.014263, 0.042547, -0.017675, 0.040715, 0.021535, -0.008196, -0.004899, -0.011442, -0.036575, -0.048961, -0.009405, -0.031524, -0.004818, -0.036818, 0.049499, -0.060545, -0.045200, 0.052167, -0.052064, 0.054747, -0.038208, 0.052396, -0.050353, 0.030120, -0.058994, -0.059863, -0.055339, 0.024476, -0.023195, 0.009827, 0.000928, 0.029078, -0.017565, 0.057356, -0.052955, -0.008427, -0.034203, 0.055996, -0.058942, 0.004666, -0.033993, 0.021003, -0.023403, -0.014448, -0.054960, 0.020747, -0.055148, 0.005348, 0.056399, -0.051308, -0.004205, 0.022174, -0.038193, 0.024364, 0.005443, -0.049258, -0.029389, 0.024485, -0.018684, 0.039826, -0.015445, -0.047495, 0.000510, -0.039497, 0.033091, -0.027673, -0.053145, -0.034302, 0.010721, 0.060364, -0.008926, -0.014847, -0.012438, -0.054833, -0.056202, -0.038875, 0.026801, 0.059709, -0.023955, 0.001476, 0.001219, -0.055035, 0.042975, -0.025460, 0.060125, 0.005491, 0.023522, -0.058655, -0.055251, 0.049281, 0.029624, 0.024419, -0.021009, 0.056685, -0.036637, -0.022739, 0.055566, -0.051906, 0.025961, -0.003232, -0.023496, -0.026745, -0.029744, -0.052188, -0.049709, -0.043610, 0.052848, 0.018276, -0.036096, -0.048778, -0.014668, 0.008864, 0.023918, 0.057940, -0.012819, 0.012751, -0.042979, 0.027093, -0.061669, -0.017840, -0.011485, 0.051127, 0.012143, -0.017536, -0.043614, -0.038038, -0.037175, -0.032161, -0.022895, -0.001787, 0.002553, -0.015242, 0.034486, -0.038919, 0.052940, 0.054052, -0.046857, -0.044875, -0.032814, -0.017307, -0.035645, 0.005880, 0.045760, 0.057381, -0.059485, 0.021880, -0.055958, 0.001367, -0.015844, -0.038745, 0.025793, -0.055533, 0.037416, -0.014321, 0.019166, -0.021848, 0.019076, 0.044549, 0.018286, 0.034274, 0.045815, -0.050067, 0.020364, 0.043607, 0.006476, 0.003005, -0.011421, -0.039936, -0.038074, -0.042872, -0.039745, 0.040532, -0.038595, 0.019350, 0.039410, 0.030296, 0.001637, 0.028562, -0.048432, 0.001360, -0.045728, -0.017691, -0.003963, 0.034248, 0.022331, -0.025532, 0.037140, -0.035186, -0.048488, -0.023506, 0.004611, 0.050732, 0.041979, 0.022987, 0.006794, 0.049732, -0.034647, -0.016137, 0.013331, -0.047513, 0.049110, -0.029116, 0.001373, 0.049523, -0.034621, -0.021870, -0.025532, 0.011920, -0.054579, 0.054202, 0.019047, 0.004894, -0.030010, -0.007430, -0.043484, 0.053406, 0.023081, -0.040648, -0.026020, 0.028129, -0.033479, -0.018625},
{0.035529, -0.012436, 0.016978, 0.046147, -0.045898, 0.015455, 0.056476, 0.052944, -0.010162, 0.018384, 0.043618, 0.050364, 0.038155, -0.006862, 0.048034, 0.011248, 0.057904, 0.046944, 0.038697, 0.004047, -0.020289, -0.006384, -0.004631, 0.027112, -0.033075, 0.029411, 0.041779, 0.019284, 0.005104, 0.000335, 0.020489, -0.010811, -0.011235, -0.030448, 0.002939, -0.017762, 0.003041, 0.003219, -0.008434, 0.005168, -0.056298, -0.023258, 0.047189, 0.020648, 0.040856, -0.059757, -0.033849, -0.013576, 0.012173, -0.021339, -0.039039, 0.001645, -0.022676, -0.000838, -0.046116, 0.010288, -0.019178, -0.022976, -0.028741, 0.021215, 0.043992, -0.043253, 0.015574, 0.017823, 0.050771, 0.018032, -0.058719, 0.043734, 0.023638, -0.029322, 0.020843, -0.010796, 0.018123, -0.052776, 0.022060, 0.032296, -0.042708, -0.022113, 0.016659, -0.040842, 0.045386, -0.013482, -0.032075, -0.043460, 0.044485, -0.027539, 0.011399, 0.008201, 0.059222, 0.051048, -0.030669, 0.041776, -0.042334, 0.038139, -0.050238, -0.059636, -0.043812, -0.050733, -0.017160, -0.054342, 0.054007, -0.030543, 0.060741, 0.005620, 0.031951, -0.003575, 0.038731, 0.016089, -0.007629, -0.041972, 0.039718, -0.034391, 0.017419, -0.038481, -0.032807, -0.014926, 0.052281, -0.061560, -0.036810, -0.010171, -0.047282, 0.032358, 0.047849, -0.000799, -0.055312, -0.026885, -0.024346, 0.015766, -0.035254, -0.003334, 0.032152, -0.027737, 0.049217, -0.026852, 0.016329, 0.055626, 0.052109, -0.011482, 0.036389, 0.026371, 0.017321, -0.012410, -0.060031, -0.043294, 0.057353, -0.030366, -0.037742, 0.011648, 0.055865, 0.022509, 0.056095, 0.033546, 0.048599, 0.004836, 0.020645, 0.055511, 0.017192, 0.042506, 0.008043, 0.048166, 0.006725, -0.058672, 0.053858, 0.039189, -0.026512, -0.047336, 0.000465, -0.024078, -0.032114, 0.049756, 0.021159, 0.016237, 0.021441, -0.020644, -0.016522, -0.018111, 0.061206, -0.039365, 0.055171, -0.015985, -0.054073, -0.016178, -0.001980, -0.019215, -0.003512, 0.007272, 0.049857, 0.052708, 0.013414, 0.034123, -0.035811, 0.036722, -0.051821, -0.028480, -0.042803, 0.024904, 0.027926, -0.049263, -0.019359, 0.051414, -0.027200, 0.030390, -0.049458, 0.043085, 0.059954, 0.009426, -0.052512, 0.056676, 0.019875, 0.045589, 0.047989, -0.058721, -0.017435, -0.019175, -0.041834, 0.031321, 0.043709, -0.003801, -0.058856, -0.054201, 0.003007, -0.024821, -0.020491, 0.039186, -0.033490, -0.059117, -0.046913, -0.043260, 0.057928, 0.010892, 0.057686, -0.037379, 0.047237, 0.030841, -0.061416, 0.020109, -0.004784, -0.029075, 0.026123, 0.009601, -0.037790, -0.022648, -0.024275, -0.027636, -0.054043, -0.013850, 0.017937, 0.034098, 0.055287, 0.025770, 0.048362, 0.061771, 0.023099, -0.020761, 0.058970, 0.009323, -0.018236, -0.043617, 0.027317, -0.002999, -0.059263, -0.019880, 0.020563, -0.024136, -0.025020, 0.025809, -0.034047, 0.026574, 0.034794, -0.027381, 0.034332, -0.000957, -0.025949, -0.010213, 0.016674, 0.059759, -0.038308, 0.013722, 0.047287, 0.024946, 0.015668, -0.014800, -0.018695, 0.034332, -0.005629, -0.016911, 0.040104, 0.034973, 0.018440, -0.035043, 0.028203, 0.058091, -0.020690, 0.055688, -0.044240, -0.050600, -0.057867, 0.038258, -0.058589, -0.061023, 0.021478, 0.013947, -0.029978, -0.036066, 0.014329, 0.054233, -0.032412, 0.041259, -0.032846, -0.013016, -0.010837, -0.003487, -0.057814, 0.027532, -0.048649, -0.043471, -0.059099, 0.041015, -0.003487, -0.026868, 0.054768, -0.004078, 0.060461, -0.017344, -0.040913, -0.013706, -0.026629, 0.027562, 0.048088, 0.058607, 0.003724, 0.014735, 0.061451, 0.035794, -0.010902, -0.042989, 0.044663, -0.016682, -0.028072, -0.006397, 0.030918, -0.033928, -0.007980, 0.043746, -0.039796, 0.007827, 0.003472, -0.054050, -0.026298, -0.027730, -0.059051, 0.047012, 0.040328, 0.050632, 0.055921, -0.048432, -0.024575, -0.055593, -0.033018, 0.001378, 0.015730, 0.022973, 0.050773, -0.019508, -0.048627, 0.018175, -0.012297, -0.012054, -0.012128, 0.013555, 0.017969, -0.024698, -0.030959, 0.030057, 0.033222, -0.005753, 0.055367, 0.004417, 0.029128, -0.038808, 0.017860, 0.033587, 0.045770, 0.051484, 0.015525, 0.053793, 0.005397, -0.057616, 0.003537, 0.045245, -0.021032, 0.037447, 0.058626, -0.003943, -0.011892, -0.046864, 0.044104, 0.055094, -0.041494, -0.052718, -0.053358, 0.025055, 0.010099, 0.017988, 0.042684, -0.004572, 0.012211, 0.049102, 0.013438, -0.015176, -0.035871, 0.031960, -0.000172, 0.014589, 0.057857, 0.034144, -0.021303, -0.002545, 0.043925, 0.035845, 0.030451, 0.049677, 0.058142, -0.016236, 0.043849, -0.012640, 0.016415, 0.027273, 0.005737, 0.061015, 0.053252, 0.038751, 0.015782, -0.019133, 0.036390, -0.056793, 0.059209, 0.012738, 0.018688, 0.043757, 0.058067, -0.023589, -0.043622, 0.058542, -0.033958, 0.004277, -0.005747, -0.040613, 0.023080, -0.037409, 0.029471, 0.005043, 0.019386, -0.033569, 0.058806, 0.049058, -0.022264, 0.033151, 0.051887, -0.028222, 0.044105, 0.042863, -0.057387, -0.027158, 0.056732, -0.011384, -0.059687, 0.030485, 0.017632, -0.030082, 0.026111, 0.042819, -0.042366, 0.006353, 0.021829, -0.060802, -0.033296, 0.045356, -0.041398, -0.040670, 0.030735, -0.027619, -0.028179, -0.001606, -0.023934, 0.012814, -0.055218, 0.057106, -0.061781, -0.003286, -0.020324, 0.042520, -0.021283, 0.021029, -0.009506, 0.003871, -0.005635, -0.044316, -0.016919, 0.014139, 0.015696, -0.059331, 0.003718, -0.019770, 0.000377, -0.036514, 0.036125, 0.042351, 0.046257, -0.031901, 0.024302, -0.034195, 0.011777, 0.027527, -0.049986, 0.022283, 0.051364, 0.003567, 0.002248, -0.053816, 0.000079, -0.052137, 0.020605, 0.023483, -0.020454, -0.002827, -0.018000, 0.046586, 0.024229, -0.054084, -0.042705, -0.010786, -0.012261, -0.040221, 0.045056, -0.057579, -0.010058, 0.007744, 0.018996, 0.022801, -0.002943, 0.050905, 0.046391, -0.011567, -0.011210, 0.026119, -0.037849, -0.059221, 0.052349, 0.013177, -0.057705, 0.010949, -0.039617, 0.046154, 0.055768, 0.002911, -0.049815, -0.011150, 0.022370, 0.017917, 0.027382, -0.006909, 0.007381, 0.049547, 0.019456, -0.035710, -0.003878, 0.030744, -0.030005, -0.039050, 0.017855, -0.035864, 0.032419, -0.005402, 0.001117, -0.035531, 0.016996, 0.004291, -0.039938, 0.050749, 0.019385, 0.052608, -0.051522, -0.043237, -0.024435, 0.033396, 0.011404, -0.041617, -0.037590, 0.008991, 0.005411, -0.031407, -0.047199, -0.030765, 0.044012, 0.030002, -0.049819, -0.039966, -0.045185, -0.029209, -0.004751, -0.004571, 0.022596, -0.005592, -0.011200, -0.060685, 0.055047, -0.012977, 0.057685, -0.023254, 0.054401, -0.034747, -0.021874, 0.018566, 0.016654, 0.040676, -0.003256, 0.061560, 0.050505, 0.047886, -0.040221, -0.017273, -0.050013, -0.004187, 0.048526, 0.030556, -0.045734, 0.003579, -0.060880, -0.000006, 0.005336, -0.040839, -0.008026, -0.011079, -0.053183, -0.046414, 0.026623, 0.002213, 0.031427, 0.004559, -0.013511, -0.054234, -0.044309, -0.043019, 0.043930, 0.007488, 0.049675, 0.016031, -0.032609, -0.046573, -0.025352, 0.056985, -0.039635, 0.052995, -0.015203, -0.047807, 0.009448, -0.061655, -0.054789, -0.006239, -0.054201, -0.058112, 0.054002, 0.023856, -0.011500, -0.024630, 0.004605, -0.016721, 0.040248, -0.053781, -0.007191, -0.012589, -0.057124, -0.019586, -0.027109, 0.027074, 0.020823, 0.005152, 0.016809, -0.050772, -0.002631, -0.023977, 0.006654, -0.023165, -0.000381, -0.045258, -0.029925, 0.001725, 0.003203, -0.024940, -0.035980, 0.008448, 0.047695, -0.028395, -0.052512, 0.036430, -0.011527, 0.010590, 0.039154, -0.017087, 0.047964, 0.021774, 0.061689, 0.015364, -0.008892, -0.043459, -0.006881, 0.049118, 0.028649, 0.026902, 0.042316, 0.047986, -0.059214, -0.042602, -0.004299, 0.030461, -0.003256, 0.057816, 0.008635, 0.040441, 0.051439, -0.042241, 0.055514, -0.046723, 0.020658, 0.042991, -0.040739, 0.007470, 0.007394, -0.010369, 0.043926, -0.053722, 0.037446, -0.014592, -0.029862, -0.001576, -0.009412, 0.033715, -0.002542, -0.046831, 0.049850, 0.024526, 0.057962, 0.052713, 0.047010, -0.039120, -0.048212, 0.016580, -0.006800, -0.056289, 0.012362, -0.038149, 0.016269, 0.057433, -0.039933, -0.034684, 0.025821, 0.009972, 0.046735, -0.033289, 0.044020, 0.020486, 0.005991, 0.017783, -0.060146, -0.034983, -0.006373, -0.046055, -0.009906, 0.020894, -0.013832, 0.041864, 0.014609, -0.051424, -0.041135, 0.010272, -0.021908, 0.032191, 0.059272, 0.022592, -0.003436, 0.006749, 0.016767, 0.029412},
{-0.005505, 0.009626, 0.027853, 0.023245, 0.019390, 0.006542, -0.032635, 0.017310, 0.052252, 0.006126, -0.022613, 0.040810, -0.014879, -0.040548, 0.060299, 0.003257, -0.028803, -0.037233, 0.012576, -0.041655, 0.002272, 0.018718, -0.032391, -0.014070, 0.001761, -0.018363, -0.040116, -0.051413, -0.035342, -0.050021, -0.056090, -0.043330, 0.007566, -0.025062, -0.036743, 0.005996, -0.049472, 0.048319, -0.018708, -0.003010, -0.042999, -0.039753, 0.046899, -0.010934, -0.025071, 0.054372, 0.025029, 0.031370, 0.052638, -0.033643, 0.050901, 0.040055, 0.004258, -0.033971, -0.028755, -0.024686, -0.054564, 0.049168, -0.043924, -0.035450, -0.024316, -0.021739, -0.023728, -0.040812, -0.012656, -0.046503, -0.005428, 0.015615, 0.004745, 0.025566, 0.057099, -0.030995, -0.042919, -0.042847, 0.000722, -0.042979, -0.015596, -0.056468, 0.010811, -0.037004, 0.050811, -0.041847, -0.020372, -0.043653, 0.056719, 0.020667, -0.000722, 0.054114, -0.049708, -0.058222, 0.012218, 0.017503, 0.036894, -0.039910, 0.016939, 0.007026, -0.005048, 0.028508, -0.028311, 0.012807, 0.033997, -0.000700, -0.032170, -0.055785, -0.014778, -0.056784, 0.043223, -0.034342, -0.050550, 0.045922, -0.002913, -0.059161, 0.011868, -0.038376, -0.028375, -0.004098, -0.052296, 0.045991, 0.045251, 0.003628, 0.056969, -0.025575, 0.011202, 0.011904, -0.052018, -0.042135, -0.004609, -0.033319, 0.030682, -0.026118, 0.035152, 0.057065, -0.033691, 0.044527, 0.034404, 0.044683, 0.003102, -0.022978, -0.018513, -0.037833, -0.008543, -0.036082, -0.017484, 0.057895, -0.027125, 0.000023, 0.051992, 0.002081, 0.026444, 0.036571, 0.035357, -0.046479, 0.025289, -0.027885, -0.041046, -0.057988, 0.030316, 0.001138, 0.027217, 0.028948, 0.053325, 0.008902, -0.027383, -0.056945, 0.037454, 0.031286, 0.034132, 0.016093, -0.013440, 0.011595, 0.029186, 0.008181, 0.006382, 0.031349, -0.052946, 0.047988, 0.030705, 0.018076, 0.011202, -0.040096, 0.033974, 0.048295, 0.016524, 0.014494, 0.010325, -0.027767, -0.017547, 0.001916, 0.035087, 0.052427, 0.056775, -0.043054, -0.008168, -0.015547, 0.000883, 0.054426, 0.008593, 0.051882, -0.033611, -0.022479, -0.028682, 0.026981, 0.032373, 0.052640, 0.027312, -0.001515, 0.004465, 0.043114, 0.011801, 0.047341, 0.011895, 0.042281, 0.057239, 0.011767, -0.007089, -0.007717, 0.027017, -0.023748, 0.049611, 0.057627, 0.010956, -0.058432, 0.039441, 0.029049, 0.034804, 0.019494, -0.007756, -0.046076, -0.033894, 0.050253, 0.057868, -0.019129, 0.029837, -0.027815, 0.020103, 0.026543, 0.012202, 0.040456, 0.039452, -0.061486, -0.058791, -0.051873, 0.044341, -0.003788, -0.021811, 0.059005, -0.007581, 0.037009, -0.056472, -0.036074, -0.029623, 0.032789, 0.009662, -0.011025, -0.054076, 0.000102, -0.046139, -0.022755, -0.037358, 0.060686, -0.037662, -0.041279, 0.048033, 0.030557, 0.049129, 0.023263, -0.023090, -0.042073, -0.020172, 0.053075, -0.016634, -0.025731, -0.006070, 0.039065, -0.052002, 0.045932, 0.033812, -0.017864, 0.033317, 0.043635, 0.004943, -0.046341, 0.052872, 0.011171, -0.011282, -0.014524, 0.057557, -0.026253, -0.007721, 0.004555, 0.042050, 0.017363, 0.000144, 0.028077, -0.032324, 0.013951, 0.034939, -0.024752, 0.060805, 0.012664, 0.011068, -0.026043, -0.020381, 0.034812, 0.031270, -0.025191, 0.036574, -0.040068, 0.007804, 0.031492, -0.044230, -0.029215, -0.017425, 0.002459, -0.010803, -0.054308, 0.015284, 0.044006, -0.006531, 0.039859, -0.032777, 0.061835, -0.020411, 0.033990, -0.016722, 0.009493, 0.013249, 0.036963, 0.036259, 0.028260, 0.030829, -0.038957, 0.011320, -0.046594, 0.045859, 0.058562, -0.055479, -0.044711, 0.001448, -0.025314, -0.051132, -0.032001, 0.001123, -0.032794, -0.039881, -0.057829, 0.017914, 0.032210, 0.044961, 0.024642, -0.022327, -0.030039, 0.016193, -0.011322, 0.022681, -0.002386, 0.012322, 0.030262, 0.037565, 0.020442, 0.040101, 0.045954, 0.011152, -0.016417, -0.054099, 0.053256, 0.014421, -0.026640, -0.004384, 0.054804, -0.044792, 0.019050, 0.037637, 0.043114, -0.006111, 0.046332, -0.007653, 0.008195, -0.036837, -0.022108, -0.042920, 0.061855, 0.060664, -0.002126, -0.038011, -0.010539, -0.013859, 0.051632, 0.018419, -0.025234, 0.008793, 0.023275, -0.004242, -0.047222, 0.002519, -0.038176, -0.014864, 0.002248, 0.050215, 0.012933, 0.049277, 0.039244, -0.047163, 0.003964, -0.036085, 0.046896, 0.005250, -0.028475, 0.010326, 0.029260, 0.022985, 0.004986, -0.033760, -0.030282, -0.034829, -0.059320, 0.036537, -0.011602, -0.023122, -0.035163, 0.051471, -0.044619, 0.049464, -0.021650, 0.024041, 0.061850, 0.009811, 0.011048, 0.056416, 0.061590, 0.054501, 0.056502, 0.048438, -0.047349, -0.051581, 0.061835, -0.013761, -0.058960, 0.023550, 0.001650, 0.003177, -0.028935, -0.002057, -0.042295, 0.034697, -0.004266, 0.033428, -0.049748, 0.039141, 0.001860, -0.016857, -0.046592, -0.044054, 0.024255, -0.025522, -0.013845, -0.042427, 0.000557, 0.051226, -0.060046, 0.043861, -0.044043, -0.043540, -0.051339, 0.041215, 0.005752, -0.010893, 0.033497, 0.055177, 0.019565, 0.029360, 0.008528, -0.008759, -0.054578, 0.025775, -0.032637, 0.057130, 0.056145, 0.024501, 0.007931, 0.031139, 0.054655, -0.028092, -0.015809, 0.048601, -0.032941, -0.012475, 0.060509, 0.020073, -0.051045, 0.019349, 0.049528, -0.035453, -0.022997, -0.007572, -0.004328, -0.057220, 0.001454, 0.017285, 0.059985, -0.045270, -0.009969, -0.058865, -0.023244, -0.009704, -0.051112, 0.044547, 0.040374, -0.014386, 0.039114, 0.002799, 0.032472, 0.047077, 0.060031, 0.047589, -0.028576, 0.020702, -0.020991, 0.051228, 0.029002, -0.054117, -0.003314, 0.052374, -0.030454, 0.039729, 0.019963, 0.031310, 0.026791, -0.048929, 0.059207, 0.020801, 0.015288, -0.035686, 0.037839, -0.020457, 0.030581, -0.036174, -0.039341, 0.041926, 0.055989, 0.045706, 0.036490, 0.003622, -0.020619, 0.006568, -0.000129, -0.028799, -0.038122, -0.049136, 0.018158, -0.058537, 0.010689, 0.001590, 0.039187, -0.044208, 0.037772, 0.027491, -0.020633, -0.050817, -0.029135, 0.047887, -0.034150, -0.023430, -0.036559, -0.051832, -0.057136, -0.010186, -0.023067, 0.016085, -0.015430, -0.025531, 0.034690, -0.028224, -0.028755, -0.044729, 0.014943, 0.002760, -0.054250, 0.055047, 0.030800, -0.006389, -0.046705, 0.046213, 0.030015, -0.026020, 0.057235, 0.028769, 0.044062, 0.053589, -0.012763, 0.057367, -0.017911, 0.053625, -0.044466, 0.005764, -0.001733, 0.014582, -0.016364, -0.043044, 0.056902, -0.042350, -0.060611, 0.007703, -0.043736, 0.016605, -0.003724, 0.042003, 0.010819, -0.005826, 0.041366, -0.008687, -0.039046, -0.016655, -0.057742, -0.000175, -0.056979, -0.037573, -0.030137, -0.034975, -0.033690, -0.025872, -0.019573, 0.005020, -0.021817, -0.010093, 0.040677, -0.053208, 0.002028, 0.045919, -0.043366, -0.045607, 0.049888, -0.055126, -0.010416, 0.011796, -0.056743, -0.025839, -0.047020, -0.029580, -0.031323, 0.028166, 0.041839, -0.009495, 0.029517, 0.010762, -0.048452, -0.058121, -0.025873, -0.043541, -0.012480, 0.011022, -0.022806, 0.061034, -0.012516, 0.027902, -0.054245, 0.041160, 0.050167, -0.027727, -0.028271, -0.045347, -0.024982, 0.051546, 0.054387, -0.004442, -0.054078, 0.032522, 0.032805, -0.036753, 0.027147, 0.017746, -0.057510, -0.055798, 0.008804, -0.028013, 0.044769, -0.037848, 0.045124, 0.024102, -0.011217, -0.056936, -0.033231, -0.000558, -0.047640, -0.006418, 0.000053, 0.035714, -0.033763, 0.032088, 0.019756, 0.013664, -0.056274, -0.025296, 0.060002, 0.034755, 0.020431, -0.026560, 0.002610, 0.051019, 0.059317, 0.014191, -0.058171, -0.028969, -0.058499, -0.045080, 0.022964, 0.008446, 0.043167, -0.031560, -0.024095, -0.008092, 0.045257, -0.058764, -0.021575, 0.055359, -0.041814, -0.032231, -0.045475, -0.055667, 0.034775, 0.050919, 0.001869, -0.006944, -0.021801, -0.015704, -0.057681, 0.046160, 0.023114, -0.058488, 0.047256, 0.034126, -0.006124, -0.056771, 0.023629, -0.042367, -0.036762, 0.012366, -0.028125, 0.008343, -0.001747, -0.054334, -0.046529, 0.039067, 0.018190, 0.001419, -0.037433, -0.003371, -0.022765, 0.021913, 0.051510, -0.006379, 0.013274, 0.015705, -0.061209, -0.057643, -0.050194, 0.006453, 0.032053, 0.040523, -0.019866, -0.052743, -0.037499, -0.005880, -0.038744, 0.046496, -0.030459, -0.053986, -0.023882, -0.024549, 0.014750, 0.052599, -0.032468, -0.055467, 0.025885, 0.023351, 0.018053, 0.007490, 0.053565, 0.005043, -0.002179, -0.053038, 0.046464, -0.031603, -0.044540},
{0.026229, 0.022131, -0.021405, 0.005817, -0.044402, -0.040077, 0.050077, -0.001760, -0.026637, -0.031969, 0.003458, 0.021519, 0.036095, -0.010097, 0.048411, 0.011125, -0.023298, 0.037053, -0.007536, -0.030614, -0.010065, 0.009423, -0.018289, -0.045483, -0.050644, 0.009153, -0.036905, 0.013277, 0.036897, -0.053506, 0.051845, 0.047581, 0.021187, -0.031523, 0.017713, 0.017899, -0.038779, 0.019330, -0.045430, -0.016369, 0.028083, -0.047331, -0.011046, -0.031955, -0.028137, -0.019319, -0.001790, -0.043940, -0.020862, 0.058414, -0.029390, 0.026021, 0.013249, -0.061818, -0.055417, 0.028441, 0.024910, 0.029021, 0.014554, 0.016847, -0.020431, 0.037575, -0.057094, -0.021971, 0.045011, 0.001116, 0.013538, 0.055897, -0.052781, 0.023151, -0.034905, -0.004162, 0.051922, 0.020293, -0.026510, 0.050123, 0.049644, 0.051671, -0.023482, 0.058519, -0.048612, 0.013192, -0.058004, -0.013864, -0.009250, 0.023486, 0.007582, 0.013225, -0.003930, 0.061151, -0.053856, 0.000560, -0.025261, -0.045453, 0.040693, 0.007779, 0.035993, 0.060911, -0.043228, -0.009419, -0.061502, 0.056446, -0.060178, 0.040844, 0.042145, -0.021390, -0.024552, -0.015725, 0.051888, 0.050319, -0.020940, 0.045219, 0.058811, -0.054675, 0.041314, -0.059249, 0.049096, -0.012283, 0.017965, 0.054645, -0.040217, 0.053600, 0.045587, -0.031350, 0.056396, 0.013624, 0.000718, -0.012036, 0.054963, 0.037268, 0.028376, -0.009006, -0.025351, 0.024270, 0.033590, -0.005886, 0.032427, -0.020276, 0.015162, -0.053695, -0.018104, 0.028933, 0.057039, 0.036385, 0.050755, 0.032665, -0.005231, 0.018202, -0.019796, -0.000492, -0.023841, -0.031764, 0.041946, -0.029551, 0.042927, -0.034494, 0.033938, 0.056353, -0.024058, 0.014065, 0.022608, 0.032384, -0.053978, 0.007166, 0.054965, 0.051073, 0.018198, 0.007450, 0.008589, 0.060206, 0.027142, 0.008016, -0.056376, 0.035905, -0.031622, -0.036179, -0.016295, 0.051448, -0.015837, -0.017402, -0.044980, 0.030817, 0.040848, -0.000393, 0.009424, -0.035893, 0.020695, 0.003532, 0.049924, 0.029274, -0.020658, 0.032580, -0.030999, -0.038472, -0.026171, -0.052936, 0.013447, 0.037081, 0.040639, 0.031943, 0.037796, 0.018446, 0.061555, -0.047852, 0.016076, 0.035611, 0.014282, 0.030129, -0.014209, -0.059172, 0.005086, 0.017363, -0.007840, 0.032553, 0.032839, -0.032752, -0.048621, 0.010114, 0.048501, -0.017167, 0.053669, -0.045900, -0.037233, 0.015255, 0.035702, 0.046550, 0.039395, -0.024964, -0.055736, -0.059458, -0.005354, 0.043105, -0.040782, -0.027319, 0.007397, 0.022651, -0.008305, -0.041731, 0.045317, -0.052725, 0.035588, 0.042278, 0.042480, -0.036589, 0.024477, -0.022350, 0.003188, -0.038243, 0.037760, -0.000295, -0.033068, -0.043643, -0.006804, 0.003937, 0.006574, -0.056914, -0.009611, 0.026302, 0.040801, -0.014128, 0.006115, -0.021354, -0.017364, -0.045248, 0.001791, 0.026460, 0.009912, -0.041779, 0.001599, -0.011200, -0.001341, -0.056113, 0.034679, 0.013538, -0.055142, 0.023388, 0.042661, 0.058340, -0.059190, 0.010158, 0.054429, -0.058846, -0.016096, 0.005044, 0.037867, -0.013170, -0.022426, -0.012173, -0.024764, 0.059254, -0.053559, 0.012436, -0.047003, 0.049512, -0.008674, -0.011728, -0.057445, -0.022638, 0.026970, -0.024417, -0.058889, -0.041647, 0.017222, 0.024934, -0.019043, 0.044138, -0.060131, 0.024086, -0.056672, -0.024781, -0.053436, -0.001512, 0.036840, 0.016512, -0.053544, -0.059419, 0.002469, -0.007053, 0.054404, -0.048634, -0.050876, -0.016066, -0.030977, 0.044532, 0.025180, -0.013811, -0.022682, -0.048401, 0.032281, 0.049896, 0.032802, -0.040681, 0.044091, -0.040139, -0.002252, 0.000957, -0.048651, -0.058547, -0.029565, 0.033326, 0.004330, -0.029133, -0.028670, 0.010129, -0.032930, -0.051918, -0.029583, 0.026339, -0.028016, -0.047852, 0.057352, 0.045283, -0.016098, -0.054621, -0.033429, -0.046667, 0.061064, -0.006609, -0.032474, 0.052258, 0.051125, 0.037280, 0.002676, -0.055665, 0.038675, 0.057922, -0.030647, 0.020821, 0.004489, 0.010538, 0.046788, -0.035678, 0.013274, 0.014994, -0.042250, -0.001736, 0.030454, -0.035019, -0.007197, -0.014003, 0.009514, -0.032500, -0.004906, -0.015324, 0.060439, 0.010748, 0.019169, 0.006366, -0.052411, 0.027348, 0.037332, -0.035458, 0.007889, -0.031641, 0.013813, -0.032987, -0.006115, -0.004518, -0.002731, 0.053838, -0.046831, 0.037102, 0.013400, -0.046422, 0.030214, 0.030995, 0.059138, 0.033080, -0.025507, -0.022367, 0.044203, -0.011048, -0.040643, -0.029603, 0.025950, 0.037620, -0.041443, -0.028750, -0.041499, 0.050929, 0.015109, -0.055789, -0.040973, -0.025076, -0.034844, -0.021301, 0.061621, -0.044768, 0.005934, -0.004850, 0.000258, 0.009845, 0.027885, -0.021636, -0.029050, 0.024151, -0.020917, -0.024875, -0.018972, 0.000016, 0.010996, 0.048981, -0.003653, 0.006770, -0.043974, 0.036417, 0.005696, 0.006164, 0.002493, 0.016275, -0.004220, 0.047018, 0.045270, 0.047359, 0.033174, 0.030036, 0.027830, -0.057574, -0.006390, 0.020283, 0.002781, 0.027084, -0.019624, 0.058391, -0.014985, 0.053267, -0.042221, -0.014834, 0.039074, 0.032845, -0.017041, 0.042212, -0.036115, -0.022155, 0.042296, 0.052709, -0.015471, 0.060891, 0.018520, -0.017781, 0.036097, -0.050753, 0.054924, -0.035062, 0.044158, 0.050899, -0.059546, -0.031591, -0.005929, -0.032808, 0.028788, -0.022000, 0.010007, -0.032029, 0.057108, -0.021726, 0.013698, 0.051840, 0.008294, -0.047918, -0.055312, 0.036479, -0.016138, -0.043219, 0.016482, 0.026354, -0.018402, 0.021502, -0.016120, 0.016998, 0.052284, -0.037246, 0.035426, 0.012082, -0.006062, 0.032998, 0.047363, 0.012609, 0.019771, -0.043193, 0.010601, -0.003788, 0.007881, 0.045854, -0.028677, -0.020446, -0.009275, 0.036839, -0.011125, 0.036039, 0.010626, 0.015834, -0.025313, 0.010920, -0.038354, -0.009148, 0.020067, 0.044224, -0.030996, -0.036154, 0.041567, -0.014337, -0.042573, -0.026772, 0.045115, 0.026756, 0.018712, -0.039522, 0.011239, -0.050839, -0.034021, -0.013739, -0.032946, 0.026783, 0.038497, -0.015643, -0.058448, 0.055893, -0.015648, -0.019563, 0.056993, -0.023508, -0.047628, 0.001443, -0.016404, 0.055280, -0.029498, -0.004944, 0.034241, 0.007619, -0.060721, 0.054660, 0.005081, 0.035590, -0.014404, -0.004501, 0.010293, -0.033539, 0.035611, 0.039218, -0.037283, -0.030533, 0.011382, -0.011253, -0.038234, 0.058165, -0.039733, 0.058150, 0.055199, 0.044435, -0.011950, 0.029043, 0.059980, -0.029493, -0.040013, -0.008412, 0.025880, 0.033277, -0.001913, -0.023080, 0.039233, 0.057540, 0.026438, -0.020067, -0.037242, 0.024477, 0.030807, 0.002834, 0.050713, -0.011122, -0.026475, 0.022184, -0.052174, 0.053884, 0.005659, -0.037561, -0.000542, 0.007187, -0.031478, -0.003319, -0.036067, 0.032586, -0.012881, 0.014051, -0.019592, -0.015807, 0.050213, -0.012757, 0.037089, 0.059766, -0.048880, -0.051455, 0.059625, -0.059015, 0.002124, -0.010198, 0.009689, 0.025822, -0.025800, 0.028788, -0.060759, -0.059808, -0.013864, 0.016128, -0.044728, 0.059619, -0.031420, -0.049479, 0.016572, 0.000406, 0.012617, -0.040691, 0.044315, 0.029224, -0.014881, -0.027456, -0.044582, -0.028582, 0.051648, -0.057069, -0.004103, -0.032632, 0.027074, 0.037457, -0.009594, -0.022475, -0.002730, -0.060323, -0.038119, 0.034838, 0.050627, 0.049283, 0.024394, 0.036589, 0.008534, 0.029339, -0.002430, 0.037958, 0.059979, 0.046223, 0.014453, 0.029791, 0.002757, -0.016659, 0.040382, 0.044907, -0.006434, -0.013107, -0.029997, 0.046223, -0.013480, 0.013289, 0.027019, 0.036243, 0.000017, -0.028880, 0.046220, -0.018464, 0.002501, 0.005483, -0.005443, -0.059161, 0.004432, -0.054089, -0.022949, 0.024662, -0.019501, -0.037970, -0.037091, 0.011490, 0.034157, -0.002715, 0.029994, -0.013819, 0.015813, -0.015842, 0.056143, 0.045505, 0.031791, -0.006935, -0.015646, 0.048283, -0.044897, -0.041479, 0.016885, 0.027879, 0.048310, -0.024901, -0.031951, 0.045568, -0.042960, -0.025004, -0.005246, -0.059124, -0.008491, 0.029851, -0.034572, 0.042732, -0.046074, 0.033751, 0.028942, -0.020176, -0.058791, 0.007573, 0.009290, -0.006437, -0.001749, -0.019508, -0.029525, 0.028153, 0.011132, 0.053857, -0.042046, 0.009658, -0.046602, -0.016244, 0.046855, 0.048744, -0.049475, -0.035942, -0.057646, 0.028841, -0.009570, -0.025077, -0.030320, 0.049130, -0.049544, -0.043289, 0.012811, 0.036986, 0.050018, 0.038658, -0.023129, -0.032688, -0.057267, -0.017992, -0.020713, -0.040215, 0.046053, 0.050380, 0.049008, -0.058225, -0.049389, 0.019484},
{0.057319, -0.056987, -0.036349, -0.054866, 0.003512, -0.036510, 0.049173, -0.045462, 0.005107, -0.053615, 0.023873, -0.024926, -0.049176, 0.046252, 0.005355, -0.054574, 0.040256, 0.049741, 0.032622, -0.040285, -0.048349, 0.061641, 0.017911, 0.009255, -0.034791, 0.035369, 0.035258, -0.050209, -0.038503, -0.015574, -0.033606, 0.047678, 0.038496, 0.027426, -0.028513, -0.040967, -0.054015, -0.025357, 0.052566, 0.033409, -0.008811, 0.057875, -0.030951, -0.009204, -0.047125, 0.028034, 0.008175, -0.048441, 0.003170, 0.026094, -0.037982, -0.006715, -0.048281, -0.052129, -0.054000, 0.035970, -0.023737, 0.036797, 0.022961, 0.035768, 0.005802, -0.039858, -0.016882, 0.055785, -0.013415, -0.027515, -0.038236, -0.036789, -0.046191, -0.022394, 0.048508, 0.000844, -0.007104, -0.022728, -0.056025, -0.047432, 0.048383, -0.041354, 0.006732, 0.023918, -0.010337, -0.029312, -0.025756, -0.006619, 0.006667, 0.055768, 0.049303, -0.010738, -0.012307, 0.002459, -0.056675, 0.031026, 0.057136, 0.015087, 0.056367, -0.045145, 0.033525, 0.023014, -0.019362, -0.047007, 0.032654, 0.059290, 0.054777, 0.059800, 0.023321, -0.031275, 0.058354, -0.021014, 0.040212, 0.001369, -0.049336, -0.058079, -0.042762, 0.002068, -0.038070, 0.058712, -0.013331, -0.051655, 0.005777, -0.039639, -0.001924, -0.013366, -0.027568, -0.028855, -0.026889, -0.026614, -0.022686, -0.040782, 0.042823, 0.028985, 0.015632, -0.023194, -0.048715, 0.006856, 0.019812, -0.040973, -0.044993, 0.018795, -0.007675, 0.060573, 0.014216, 0.020984, 0.010959, 0.012671, 0.043873, -0.039276, -0.002328, -0.024315, -0.013939, 0.046323, 0.043686, -0.004319, -0.021775, 0.017656, -0.016225, -0.059324, -0.016286, -0.024567, 0.018349, 0.030406, -0.039523, -0.040100, 0.008102, -0.000337, 0.051773, -0.036262, -0.048128, 0.059747, -0.055126, 0.035716, -0.018684, 0.023456, -0.010435, 0.021500, 0.037180, -0.019094, 0.012500, -0.038566, -0.004021, 0.032122, 0.060531, 0.020832, -0.021003, 0.048264, -0.044162, -0.024420, -0.001563, 0.020704, -0.058062, 0.014104, 0.033020, 0.040434, -0.005395, 0.023912, -0.039660, -0.050349, 0.033432, 0.033448, 0.002012, -0.023977, -0.057278, -0.025560, 0.048105, 0.000246, 0.001158, 0.054711, 0.059383, 0.056199, 0.039976, 0.017856, 0.057431, 0.007139, 0.040294, 0.023922, -0.057563, 0.004223, 0.010266, -0.053895, 0.025615, 0.047926, -0.052590, -0.057262, 0.026307, -0.001927, 0.007277, 0.056490, 0.027969, 0.048963, -0.015845, 0.038396, -0.007066, 0.002324, 0.058382, -0.046729, 0.026245, 0.043059, -0.048491, -0.045960, -0.050373, 0.014178, -0.042447, -0.047450, -0.008939, 0.041176, 0.043359, -0.014415, -0.037118, 0.004609, 0.048661, 0.033468, 0.047164, 0.056707, -0.031686, 0.002435, 0.053572, 0.052164, 0.033672, -0.035297, 0.061193, 0.030429, -0.054872, 0.004978, 0.057236, -0.054383, 0.009302, -0.016867, 0.002934, -0.031556, -0.030080, -0.011153, 0.035532, -0.051152, 0.005866, -0.006515, -0.043035, -0.054856, -0.008194, 0.041281, 0.025395, 0.006703, 0.016744, -0.061859, 0.059033, -0.049403, -0.009556, -0.000373, 0.009509, -0.053565, -0.059350, 0.000614, 0.046930, -0.033356, -0.027639, -0.014793, -0.032574, -0.053468, -0.056577, -0.000087, 0.039584, -0.058362, -0.028309, -0.029632, -0.014191, 0.023180, 0.012549, 0.055250, 0.038912, -0.011329, -0.014097, -0.031533, -0.043614, 0.030801, 0.032989, -0.040950, -0.039238, -0.022706, -0.006391, 0.035362, -0.024698, -0.023774, -0.008255, 0.013200, 0.023074, 0.017282, -0.009294, 0.029582, -0.025545, -0.057953, -0.045761, -0.042845, 0.042779, -0.037045, -0.035017, 0.006307, -0.026369, 0.005376, -0.048026, -0.035321, -0.010355, 0.024131, 0.027547, -0.002017, 0.059791, -0.043549, -0.030427, 0.059865, 0.039237, 0.020115, 0.012220, 0.034806, -0.021163, 0.013375, 0.004603, -0.000595, 0.045007, 0.026792, -0.031338, -0.039919, 0.003746, -0.045524, -0.022687, 0.030124, 0.018455, -0.034088, -0.007170, -0.040925, 0.044906, 0.022749, 0.005132, 0.049415, -0.018599, 0.047303, 0.014100, -0.000079, -0.049485, 0.035385, 0.014507, -0.009658, -0.035049, -0.021919, -0.042071, 0.059394, -0.053180, -0.040628, 0.046440, 0.020276, 0.012405, -0.024401, 0.013714, -0.011776, 0.003316, -0.060802, 0.014956, -0.004893, 0.015780, 0.003442, -0.038437, -0.059616, 0.059133, -0.016052, -0.019034, -0.016000, -0.023757, -0.045115, 0.061622, -0.001780, 0.036058, 0.045660, 0.045467, -0.005422, 0.024639, -0.042321, 0.014122, 0.022396, 0.006713, -0.055534, -0.021343, -0.056515, -0.001878, 0.058965, -0.050035, -0.039322, -0.020216, 0.048469, 0.000225, 0.005020, -0.046467, 0.022271, -0.039243, 0.024248, -0.014395, 0.001671, -0.039274, -0.024670, 0.047327, -0.049380, 0.014902, 0.003326, -0.010993, 0.024656, -0.059244, 0.040400, 0.015370, -0.011768, 0.016234, -0.052330, -0.045957, -0.006716, 0.029651, 0.037091, -0.007237, -0.051915, 0.059307, 0.020435, 0.052334, -0.005618, 0.028634, 0.046742, 0.017232, -0.035674, -0.040816, -0.019074, 0.003620, -0.022378, 0.003572, -0.028603, 0.014561, -0.033764, 0.019188, 0.014991, 0.011374, 0.059217, -0.049081, 0.018438, 0.022264, -0.052189, -0.047692, 0.022938, -0.002164, 0.010433, 0.011538, -0.002979, -0.032152, -0.020020, 0.022392, -0.035236, 0.039503, -0.025352, -0.006130, 0.030744, -0.001621, 0.048008, -0.034378, 0.047160, -0.016872, 0.003789, -0.008670, 0.006977, 0.034368, -0.024910, -0.005935, 0.058659, -0.029202, 0.011736, -0.027270, 0.010155, 0.009981, 0.043420, -0.037945, -0.032287, 0.003734, 0.060637, -0.032250, 0.018125, 0.036081, 0.035238, -0.026356, -0.021508, -0.002058, 0.059173, -0.013465, -0.055623, -0.024655, 0.024597, 0.029723, 0.004720, -0.007542, -0.052685, -0.025393, -0.016968, 0.024154, 0.033673, -0.048718, -0.021498, -0.022378, 0.020934, 0.026586, 0.043825, -0.019170, 0.058685, 0.020712, -0.012899, 0.041631, 0.041299, -0.005351, -0.033232, -0.011886, 0.049876, 0.022213, 0.040646, 0.049378, -0.039850, 0.029660, 0.021844, 0.054833, 0.040859, -0.059765, -0.016339, 0.054740, 0.023691, -0.005338, -0.006894, -0.060738, -0.012684, 0.058142, 0.012229, -0.042002, -0.003082, 0.012817, 0.019381, -0.049707, -0.037013, -0.057222, -0.055055, -0.038285, 0.041970, 0.027266, -0.018919, -0.044469, 0.000791, 0.055326, -0.029627, -0.011729, 0.037884, 0.012653, -0.006297, 0.007688, 0.003891, 0.039045, -0.006225, 0.033521, 0.002435, -0.031181, -0.000467, 0.056421, -0.002966, 0.041518, -0.004923, -0.005689, 0.022929, -0.018958, -0.005281, -0.031118, 0.039983, -0.040295, -0.047334, 0.037250, 0.011124, 0.030958, 0.049318, 0.021167, 0.046131, 0.028539, -0.017404, 0.029529, -0.048748, 0.023521, 0.007221, 0.026217, -0.017101, -0.058490, -0.039188, 0.056679, -0.028823, -0.003700, 0.053461, -0.015459, 0.036196, 0.029640, 0.032632, -0.037006, -0.012676, 0.042665, -0.003836, -0.005037, 0.029054, 0.004853, -0.048752, 0.030462, -0.042547, -0.053542, -0.017177, -0.035569, 0.005649, -0.003053, -0.050122, -0.032605, -0.008943, -0.031006, 0.049143, -0.057490, 0.022211, 0.016618, 0.015863, 0.061707, 0.033406, 0.010290, 0.031256, -0.048577, -0.018520, -0.045872, 0.020408, -0.016185, 0.040184, 0.038110, 0.057480, 0.049877, 0.035067, -0.004233, 0.040832, 0.010826, 0.013789, -0.015783, -0.032739, 0.005586, -0.003937, -0.030077, -0.037122, 0.006780, -0.031128, -0.001146, -0.032425, -0.051428, -0.026876, 0.042079, 0.047024, -0.052863, -0.024245, 0.059060, -0.036239, 0.049461, -0.047544, 0.061074, -0.033655, -0.045466, -0.040259, 0.016947, -0.053754, -0.023151, 0.007567, 0.029314, -0.049396, -0.005576, -0.000435, 0.060417, 0.020415, -0.005775, -0.047301, 0.024607, -0.057677, -0.036840, 0.054327, -0.022971, 0.016774, -0.035056, -0.030410, -0.035030, 0.035681, -0.049082, 0.020602, -0.032658, 0.061162, -0.028919, 0.056156, -0.058792, -0.032913, -0.059389, -0.016831, 0.018530, -0.061404, -0.050011, -0.002220, 0.041558, 0.036772, -0.035496, -0.039812, -0.018096, 0.030802, 0.048818, -0.053654, 0.042374, 0.054454, 0.060515, 0.032224, -0.037461, 0.007530, -0.054699, 0.032849, -0.012067, 0.010215, -0.058185, 0.005212, 0.012295, 0.039857, 0.020653, -0.039177, -0.054609, 0.006370, 0.022446, -0.037170, 0.061517, 0.018725, 0.007776, -0.043046, -0.053961, 0.032979, -0.036529, 0.014884, 0.000213, 0.023243, 0.012015, -0.040025, 0.035056, 0.039883, -0.051409, 0.050997, 0.031916, 0.017478, 0.005576, -0.036066, -0.001410, -0.019053, 0.026524, 0.018283},
{0.043674, -0.008139, -0.014988, 0.034837, -0.047360, -0.017220, 0.000669, -0.034982, 0.038215, -0.045258, -0.012674, 0.014690, 0.034241, 0.019990, 0.028006, 0.004936, -0.039540, -0.024051, 0.043079, -0.043806, -0.002450, 0.021099, -0.035216, -0.008249, 0.017699, -0.054632, -0.001196, 0.036987, -0.038441, -0.026843, 0.049190, 0.008305, -0.001841, 0.036784, 0.011100, -0.016948, -0.049548, 0.039002, 0.056274, -0.036664, 0.037233, 0.044675, 0.042666, 0.014101, -0.052723, -0.029365, 0.030695, 0.010682, 0.054869, 0.033205, -0.051583, -0.042678, -0.058270, 0.060341, -0.006992, -0.002407, -0.021802, -0.049003, 0.046915, -0.054303, 0.031173, 0.047178, -0.002698, 0.000864, 0.013242, -0.030890, -0.049774, 0.027313, -0.037611, -0.026106, -0.028798, 0.021603, -0.027898, 0.043022, 0.019559, 0.039070, 0.008515, -0.021638, -0.030786, -0.015329, -0.056033, -0.006102, -0.021337, 0.052855, -0.046063, 0.036660, -0.040639, 0.008930, 0.011062, 0.045789, -0.032977, 0.000531, 0.053309, -0.048832, 0.029467, 0.013483, 0.031891, 0.016220, -0.001680, 0.029527, -0.041872, 0.028396, -0.042036, -0.056435, 0.037656, 0.007948, -0.044139, 0.056818, 0.016052, 0.017046, -0.011851, 0.053162, -0.009414, 0.022620, -0.035967, -0.021572, -0.010463, -0.045145, -0.032889, -0.031967, 0.031878, 0.052983, 0.037098, -0.034782, 0.042104, 0.043634, -0.059234, 0.000128, -0.058064, 0.022231, -0.043222, -0.011501, -0.014325, 0.033166, 0.016661, -0.035369, -0.030143, 0.009090, -0.047100, 0.011145, 0.032691, 0.039717, -0.052223, 0.038138, 0.038310, 0.036611, 0.032289, -0.031865, -0.023106, -0.022128, -0.037737, -0.028258, 0.045126, 0.053154, -0.051645, 0.054756, 0.048875, 0.054400, -0.024026, 0.044574, -0.026641, 0.016809, 0.002264, 0.055775, -0.057284, 0.008466, -0.047241, -0.044340, 0.041817, 0.029578, 0.060065, 0.029952, 0.019925, 0.060548, 0.008639, -0.026394, -0.010903, -0.033066, 0.033394, -0.026911, 0.061382, -0.054534, 0.020585, 0.060112, 0.029548, 0.005240, -0.022023, -0.031353, 0.049289, -0.031629, 0.037446, 0.019520, 0.022551, 0.021306, -0.012263, -0.057673, 0.013977, -0.056677, -0.052174, 0.046002, -0.002456, -0.020659, -0.018729, -0.046534, 0.042742, -0.039351, 0.002953, -0.004184, 0.020962, 0.036605, 0.016390, -0.055042, -0.017090, 0.036649, -0.004534, 0.003328, -0.008006, 0.050359, 0.018138, -0.035506, -0.056710, -0.017250, 0.021201, -0.009952, -0.042830, 0.036932, -0.013136, -0.025578, -0.041312, 0.034594, -0.028271, -0.051880, -0.045192, 0.044329, -0.060488, -0.016619, -0.060020, 0.040303, -0.022998, 0.044673, -0.032557, -0.012443, -0.049501, 0.055437, -0.025323, -0.012661, -0.027972, -0.054001, -0.013975, -0.031391, -0.010555, 0.060372, -0.020276, -0.047608, 0.028586, 0.005676, -0.061204, -0.018840, -0.040521, 0.055261, 0.013919, -0.051476, -0.009240, -0.014127, 0.044865, 0.003419, -0.016843, -0.059447, -0.016034, -0.022058, 0.004105, 0.004671, -0.011278, 0.021966, -0.037535, -0.044664, -0.021816, -0.045541, -0.013398, -0.009275, 0.061013, 0.051220, -0.012672, 0.004128, 0.004196, 0.050699, 0.002153, -0.009168, 0.017202, 0.033880, 0.029810, 0.034019, 0.058035, -0.013390, -0.043939, 0.050043, 0.009604, -0.042826, 0.056827, 0.042347, -0.038304, -0.010781, -0.026444, -0.027746, 0.004568, 0.023976, 0.052435, 0.017327, -0.058967, 0.053349, -0.036062, -0.033123, -0.037549, -0.005927, 0.021758, 0.007061, 0.007448, 0.006588, 0.029825, -0.000883, -0.044674, 0.036731, -0.018785, -0.032944, -0.010716, 0.028286, -0.057369, -0.004333, 0.010036, -0.039025, -0.054280, -0.017510, 0.031718, -0.019285, 0.003485, 0.055749, -0.053814, -0.011682, 0.057823, -0.026174, -0.041312, -0.004435, 0.001309, -0.033871, 0.049001, 0.050587, 0.053780, -0.033843, -0.000062, -0.052999, 0.023226, 0.021766, -0.008205, 0.031730, 0.002906, -0.004095, -0.060036, 0.027024, 0.053856, -0.044950, -0.003482, 0.050849, -0.048725, 0.036760, -0.049408, 0.050170, -0.034056, 0.045163, 0.048769, -0.056280, -0.036596, -0.012451, 0.052272, -0.001588, 0.043095, -0.042002, 0.030798, 0.043107, 0.004481, 0.033813, -0.029637, -0.056028, -0.002455, -0.000450, 0.059942, -0.058898, -0.053307, -0.041990, 0.012298, -0.048705, 0.020754, 0.016680, 0.054349, 0.056719, 0.054733, 0.053049, -0.015568, -0.046904, 0.054546, -0.032934, 0.032383, 0.058655, -0.059840, -0.033992, 0.051895, -0.050717, 0.004518, 0.059074, -0.052445, 0.017858, 0.050502, -0.044613, 0.022485, 0.010307, -0.003746, 0.008233, 0.035786, 0.017311, 0.022599, 0.024772, -0.024646, -0.038484, -0.045846, -0.056131, 0.001746, -0.003863, 0.004791, -0.034690, -0.023572, 0.004084, -0.007291, -0.059323, 0.052682, -0.040487, -0.031661, 0.053458, 0.006685, 0.061843, 0.051014, 0.011198, -0.031275, 0.035669, -0.037463, 0.022421, 0.020791, -0.028492, -0.040072, -0.013274, 0.054005, -0.012691, 0.059000, -0.020137, 0.036658, 0.055985, 0.050169, -0.020702, -0.022479, 0.045021, 0.050847, 0.036277, 0.017962, 0.024360, -0.030829, 0.024506, -0.026561, 0.012817, 0.044948, -0.048177, -0.024090, 0.010368, 0.018121, 0.047204, -0.047494, 0.054771, 0.049831, 0.011406, 0.023208, -0.058788, 0.008758, 0.052336, -0.053850, -0.023640, -0.032120, -0.039603, -0.009824, -0.029392, -0.057850, -0.046373, -0.032782, -0.003318, -0.055209, -0.026430, -0.032805, 0.007552, -0.039184, 0.059628, 0.035537, -0.009991, -0.023932, 0.032956, -0.038790, 0.032791, -0.015061, 0.058633, -0.017081, 0.007126, 0.058456, 0.036559, -0.052849, 0.008309, 0.029532, -0.013061, 0.055276, 0.024968, 0.056312, -0.039488, -0.048081, 0.008360, -0.054183, 0.059873, -0.058393, 0.019361, -0.016313, -0.031209, 0.020763, 0.056662, 0.031757, 0.058725, -0.051312, -0.041528, -0.040503, 0.017851, -0.030084, -0.001935, 0.005240, 0.054082, 0.016963, -0.013765, -0.046049, 0.033399, 0.045368, 0.012862, 0.059692, -0.058085, 0.052688, -0.038472, 0.025404, 0.050926, 0.041662, 0.019806, 0.041041, -0.002836, -0.024627, -0.027946, 0.014016, -0.001256, 0.031371, 0.038694, -0.061812, 0.050656, 0.054330, 0.037094, 0.037096, -0.059108, -0.021917, 0.038651, 0.034338, -0.013826, -0.051155, -0.040950, 0.035446, 0.053042, 0.029454, 0.016336, 0.038342, -0.010807, -0.012537, 0.020090, 0.000982, -0.035837, 0.051702, -0.045508, -0.032586, -0.047846, 0.038368, -0.035455, 0.016962, -0.048105, -0.025361, -0.061597, -0.059904, 0.050330, -0.045359, 0.049738, 0.046899, -0.046949, -0.014831, 0.015444, 0.028426, -0.011439, -0.038508, 0.061031, 0.006723, 0.027699, 0.037685, -0.000309, -0.028434, 0.045498, 0.013120, -0.011766, 0.052207, 0.057854, -0.043376, -0.025307, 0.040056, 0.001426, 0.001515, -0.011949, 0.007461, 0.031370, 0.043322, 0.039675, -0.021586, 0.033568, -0.052266, -0.029987, 0.016221, 0.044431, -0.040284, -0.023326, -0.024232, -0.026848, -0.050180, -0.005943, 0.052313, 0.032457, 0.054397, 0.008672, 0.049050, 0.053608, 0.016971, -0.023267, -0.054913, 0.006013, -0.019732, 0.039291, -0.051334, -0.015773, -0.031697, 0.008350, 0.053002, 0.049805, 0.039876, 0.011383, 0.019550, 0.038208, 0.019189, 0.027942, 0.005368, 0.022762, -0.006967, -0.000395, -0.037627, -0.061556, 0.024572, 0.026113, -0.000717, -0.033396, -0.000020, 0.007515, -0.016792, 0.034045, -0.022052, 0.044616, 0.023154, 0.009552, 0.056309, -0.037032, 0.059898, -0.015132, 0.044332, 0.002171, 0.040164, -0.018576, 0.048917, 0.033982, 0.056528, -0.056116, 0.052532, 0.015701, -0.024649, 0.038162, -0.012446, -0.052247, -0.038466, 0.005956, -0.016592, -0.016341, -0.001532, 0.061682, 0.054769, -0.028806, -0.056913, -0.012106, -0.017053, -0.047091, 0.056614, -0.029911, -0.020935, -0.059541, 0.048296, 0.057261, -0.004044, -0.059780, -0.047422, 0.017453, 0.019034, 0.038204, 0.031606, 0.021193, -0.003456, -0.020328, -0.039639, 0.059279, -0.014439, 0.054885, -0.007638, 0.028729, 0.050177, -0.050667, 0.061153, 0.017255, 0.026284, -0.054833, 0.002305, -0.017753, 0.012989, -0.030536, -0.014412, -0.035657, 0.034901, 0.011574, -0.041822, 0.060376, -0.056852, 0.000912, -0.027067, 0.028038, 0.011329, 0.041384, -0.027621, 0.036956, -0.003284, -0.037115, -0.020748, 0.048300, -0.014848, -0.028638, -0.031655, 0.052829, 0.054365, 0.056054, -0.013420, 0.060539, 0.026310, -0.014395, -0.005730, 0.049740, -0.009478, -0.017093, 0.053394, 0.003444, -0.056723, -0.028068, 0.040263, -0.003625, -0.046762, -0.028370, -0.047402, -0.012460, -0.030044, -0.007118, -0.009168, 0.059553},
{-0.001571, 0.054392, 0.019067, 0.012393, 0.052560, 0.002414, 0.020251, 0.010636, -0.014736, 0.037644, -0.026222, 0.012713, 0.044487, -0.024813, -0.055828, -0.053269, -0.003265, -0.032180, -0.030032, 0.052174, -0.002337, 0.050732, 0.010300, -0.054833, 0.048690, 0.029120, 0.043120, 0.020097, -0.044557, -0.034876, 0.027870, -0.010627, 0.042346, 0.026084, 0.014717, -0.048295, 0.022846, 0.033577, -0.050718, -0.047434, 0.027973, -0.055057, -0.028623, -0.045810, 0.058421, -0.054777, -0.022168, -0.021881, -0.047963, 0.008045, 0.047743, -0.058247, -0.055200, 0.055544, -0.007077, -0.012582, 0.015888, -0.046142, -0.021154, -0.023030, 0.013286, -0.040991, -0.006744, -0.023286, 0.001176, -0.045501, 0.013420, -0.024865, -0.043444, -0.049435, 0.060884, 0.037045, 0.027515, 0.057019, 0.002203, 0.027953, 0.039659, 0.008287, -0.033448, 0.037885, 0.022924, 0.028091, -0.018431, 0.048467, 0.002189, -0.020944, -0.003558, -0.037982, -0.038037, 0.025960, -0.026332, 0.057099, -0.048270, 0.048158, -0.053297, 0.023490, -0.028495, -0.004533, -0.052650, -0.004190, -0.025993, 0.035212, -0.055933, 0.009426, 0.018488, 0.023357, 0.060048, 0.052523, 0.053881, -0.002118, 0.022519, 0.007515, 0.057451, -0.022473, -0.035788, -0.061107, -0.040956, 0.017083, -0.011021, -0.011602, -0.034909, -0.019382, 0.014394, 0.054406, 0.039178, -0.029419, 0.045845, -0.023257, 0.013481, 0.006749, -0.043137, 0.040326, 0.020516, -0.028916, -0.046084, 0.013142, 0.002301, 0.025870, 0.004108, 0.036140, 0.015367, -0.060590, -0.011372, 0.030343, 0.018038, 0.003404, 0.031107, 0.019023, -0.049750, 0.003160, -0.034535, -0.008940, 0.040198, 0.027513, 0.008563, -0.016471, -0.027785, -0.013526, -0.000533, -0.023337, -0.060335, 0.058501, -0.054224, -0.017301, -0.053605, 0.043519, 0.041406, -0.056702, -0.042963, 0.017158, 0.013242, -0.058998, 0.021025, 0.001539, -0.022630, -0.026952, -0.037268, -0.042023, 0.040147, 0.037007, 0.039217, 0.058798, 0.059563, -0.022950, -0.055724, 0.046153, 0.030134, 0.012091, -0.035487, -0.046592, -0.008815, 0.054553, -0.030246, 0.003374, 0.019283, -0.056236, -0.017113, -0.054454, 0.036667, 0.007479, -0.056257, -0.007940, -0.022821, -0.019276, -0.024825, 0.038428, 0.002752, -0.003094, 0.023948, -0.052760, 0.006422, -0.016275, -0.020443, 0.044729, -0.013637, -0.011366, -0.041126, -0.039354, 0.001534, -0.054712, 0.045402, 0.036873, 0.032564, 0.051895, -0.017948, -0.022215, 0.044172, -0.055434, -0.000864, -0.028648, 0.042136, 0.009552, 0.028305, -0.018720, -0.043659, -0.031078, -0.004915, -0.054090, -0.022617, 0.038732, 0.004636, -0.002968, 0.007517, -0.021299, 0.030335, -0.008425, -0.013627, -0.008448, -0.049899, -0.054733, 0.049193, 0.022301, 0.014265, 0.027519, -0.029149, 0.042411, 0.019798, 0.051028, -0.009271, 0.033348, -0.003202, 0.014381, -0.031185, 0.023429, -0.056260, -0.026356, 0.025798, -0.031766, 0.010224, 0.038239, -0.046605, -0.056907, -0.046326, -0.017972, 0.046028, -0.049879, 0.061036, 0.039879, -0.033921, 0.008692, 0.027544, -0.044041, 0.052600, -0.010555, -0.049295, -0.027088, -0.005856, -0.061330, -0.036316, 0.042707, -0.012004, -0.004058, 0.013450, -0.009220, 0.022089, 0.055199, 0.002477, -0.005254, -0.002350, 0.038550, 0.034589, -0.047018, -0.048882, -0.027018, 0.019884, -0.059077, -0.001726, 0.025224, -0.045642, -0.021724, -0.014802, 0.055085, -0.027143, -0.029082, 0.058631, 0.006697, -0.039677, -0.013061, 0.045740, 0.025678, -0.011428, -0.032810, -0.000771, 0.015734, 0.031047, 0.023000, 0.001583, 0.014076, 0.047603, -0.008008, 0.027890, -0.060811, 0.012088, -0.051319, 0.003010, 0.039533, -0.061585, 0.051969, -0.044909, -0.045181, -0.031345, -0.017249, -0.025707, 0.011802, 0.060998, 0.014834, -0.055748, 0.034527, 0.061553, -0.037479, -0.037924, -0.013985, 0.058718, -0.036840, 0.014144, -0.001109, 0.051168, 0.013322, -0.044487, -0.009874, -0.039896, 0.054373, -0.024924, 0.017387, 0.044074, 0.038923, 0.029349, -0.022633, -0.011687, -0.018170, 0.017648, 0.022741, -0.003442, 0.046716, -0.024445, 0.001615, -0.038982, -0.050871, 0.014686, 0.003167, -0.003681, 0.011652, -0.038879, -0.036509, 0.061516, 0.007566, 0.025672, -0.001920, 0.021766, 0.042956, 0.025262, -0.022910, -0.023359, 0.024339, -0.027400, -0.004497, 0.004557, -0.056832, 0.054110, -0.001061, -0.014622, 0.013686, 0.020277, -0.013820, 0.003585, -0.001014, 0.014531, -0.045679, 0.034620, -0.040551, 0.012429, -0.029250, -0.002573, -0.051643, 0.000005, -0.011617, 0.029947, -0.041678, 0.050688, 0.048189, 0.057336, -0.047305, -0.024753, 0.039265, 0.056102, -0.002110, -0.007457, 0.025106, 0.048269, -0.060588, 0.038549, -0.034819, -0.007102, -0.056667, 0.049958, 0.059805, 0.013425, -0.051233, 0.036481, -0.026163, 0.018211, -0.041195, 0.032921, 0.008403, -0.055310, -0.043830, -0.051505, -0.013735, -0.037999, 0.040440, -0.039929, 0.049503, -0.002145, 0.024577, -0.028390, 0.006660, 0.046355, -0.061304, 0.009990, -0.051111, -0.021183, -0.032965, -0.039050, -0.027524, 0.010564, 0.044604, -0.048661, 0.060914, -0.049685, 0.012406, -0.027028, 0.003767, -0.054742, 0.056060, -0.011842, -0.050010, -0.051284, 0.026381, 0.004861, -0.029990, 0.009682, -0.033572, 0.049090, 0.038670, -0.030137, -0.000006, 0.044760, 0.040412, -0.060498, -0.038811, -0.017708, 0.059651, 0.056097, -0.012123, -0.015540, -0.023464, -0.010720, -0.026036, 0.009588, -0.024634, 0.028833, -0.006699, 0.040276, 0.001173, 0.055175, -0.029493, 0.036141, 0.032809, -0.048710, 0.037724, 0.023667, 0.035256, 0.042727, -0.005123, 0.041652, -0.036848, 0.015108, 0.043764, 0.014713, 0.013535, -0.001948, 0.026809, 0.041983, -0.006288, -0.001382, 0.048258, 0.042540, -0.048925, 0.047727, 0.020205, 0.029285, 0.037191, 0.032071, 0.001585, -0.008933, 0.030650, -0.012232, 0.061792, 0.045951, 0.031478, 0.021772, 0.018154, -0.047326, -0.032882, 0.017513, -0.019653, -0.046501, -0.035510, -0.004398, -0.061328, 0.057873, 0.024800, -0.010494, -0.046866, -0.000355, -0.047845, -0.028250, 0.004691, -0.051871, -0.048166, -0.005652, 0.058466, -0.033387, 0.040710, -0.002838, -0.021100, -0.038164, 0.022015, 0.055403, 0.016906, -0.007107, 0.012013, -0.002702, -0.048027, -0.022376, -0.052382, -0.061652, -0.054646, -0.058469, 0.030317, -0.000092, 0.000254, 0.009963, -0.026735, -0.060229, -0.000250, 0.008354, 0.011892, -0.007733, -0.014529, -0.050731, -0.015072, -0.006647, -0.037499, -0.047011, 0.038855, 0.012627, -0.008363, 0.023665, 0.034846, 0.039870, -0.053170, -0.050183, 0.019681, 0.056281, -0.037822, 0.057644, -0.051365, 0.039365, 0.029400, -0.001044, 0.010413, 0.011503, 0.027907, 0.039275, 0.056188, 0.057915, 0.031460, -0.031363, -0.018188, 0.000192, -0.053908, -0.027745, 0.012633, 0.048742, -0.048375, -0.052144, 0.026047, -0.056003, -0.051913, 0.021548, 0.035140, 0.043184, 0.038939, 0.057483, -0.019908, -0.026483, -0.012319, 0.005743, 0.010470, -0.038917, -0.044652, -0.046844, 0.039512, -0.000922, -0.026391, 0.013544, -0.028171, 0.004936, 0.040622, -0.059896, 0.014755, 0.034072, -0.031514, -0.022013, 0.022134, 0.016409, 0.058826, 0.005701, 0.031509, 0.057679, 0.029719, -0.028227, 0.052196, 0.039870, -0.013832, 0.018720, -0.005234, 0.031316, 0.058612, -0.002023, -0.058752, 0.010330, -0.054545, -0.011641, -0.042523, 0.023908, -0.025469, 0.032896, 0.018482, -0.038455, -0.006522, 0.056146, -0.051732, 0.045176, 0.001992, -0.025837, 0.003294, 0.027611, -0.017467, -0.038334, 0.000515, 0.019824, 0.024775, -0.038190, -0.054332, 0.013728, 0.026540, 0.013900, -0.025754, 0.051689, 0.034370, -0.037041, 0.015807, -0.052974, -0.060754, -0.012815, 0.054032, 0.037970, -0.027361, 0.045619, -0.042267, 0.000716, 0.034945, -0.007372, -0.039924, 0.022791, 0.039360, -0.034495, 0.013876, 0.005932, 0.024963, 0.028613, -0.054743, 0.007452, 0.012687, -0.029653, 0.055265, -0.013946, 0.000229, -0.023039, -0.052770, 0.003888, 0.021159, 0.012146, 0.031120, -0.022243, -0.003385, 0.037142, 0.042294, 0.053529, 0.046968, -0.034388, 0.015121, -0.056461, -0.021207, 0.042684, 0.002019, 0.023067, 0.045180, 0.041057, 0.013563, -0.021908, 0.044963, 0.059724, -0.046876, 0.055246, -0.026075, 0.036392, 0.035000, -0.016214, -0.058506, 0.039925, -0.042917, -0.048005, -0.012082, 0.005035, 0.037632, 0.010440, 0.031704, 0.032718, 0.002794, 0.051560, 0.024154, -0.003717, 0.006897, 0.012481, 0.010041, 0.043817, 0.049188, -0.042723, 0.053674, 0.017760, 0.002393},
{0.004643, -0.029021, 0.024793, -0.012767, -0.038495, 0.059214, 0.016488, 0.009630, 0.039613, -0.035072, -0.060909, 0.054645, -0.022180, 0.052968, -0.046019, 0.033440, -0.008529, -0.009950, -0.045615, -0.028799, -0.006380, -0.038247, -0.048710, -0.057010, -0.054812, 0.055031, -0.057290, 0.061407, 0.019361, 0.029435, -0.054847, -0.011123, 0.022722, -0.043916, 0.060099, -0.030221, -0.049750, 0.011416, -0.042001, -0.043434, -0.010525, -0.021581, 0.020322, 0.045570, -0.037749, -0.043558, 0.028904, -0.042897, -0.005776, -0.048441, -0.020284, -0.024522, -0.005628, 0.021305, 0.048227, -0.060794, -0.028581, 0.031709, 0.032411, -0.058359, -0.027815, 0.028247, -0.025998, 0.050832, 0.026535, -0.050200, -0.060844, 0.007776, 0.022359, 0.015829, -0.060769, -0.017450, 0.016489, -0.013429, -0.054440, 0.019694, -0.057985, -0.038972, 0.043113, -0.038945, -0.005118, -0.054038, 0.059976, 0.010696, -0.032925, -0.028867, 0.033432, -0.009926, 0.023182, -0.036714, 0.011971, -0.013268, -0.021297, -0.013124, 0.002099, 0.013273, -0.023689, -0.038908, -0.032325, -0.008756, -0.033650, 0.046868, 0.047924, 0.002639, -0.016958, 0.019995, -0.053108, 0.038704, -0.015055, -0.029577, 0.011454, 0.034681, 0.038230, -0.016168, -0.022191, -0.006355, -0.017578, 0.041735, -0.016691, -0.049793, 0.058648, 0.047949, 0.039584, -0.056709, -0.008572, -0.030373, 0.004035, -0.026914, -0.038994, -0.049748, -0.057593, -0.047377, -0.051723, 0.052773, 0.010023, -0.047401, -0.046533, 0.040394, 0.022976, -0.044390, 0.003150, -0.006542, -0.058999, -0.024770, -0.001663, -0.001792, 0.018015, 0.018516, 0.039998, 0.010454, -0.026099, -0.024485, 0.000743, 0.042705, -0.060234, -0.035917, -0.036957, -0.040613, 0.049086, -0.043527, -0.058847, -0.040537, 0.006074, 0.041168, -0.056990, 0.029179, -0.005643, 0.042471, 0.033752, -0.019601, 0.047144, -0.019232, 0.003206, -0.040038, -0.017476, -0.029459, -0.043390, 0.029640, -0.015571, -0.019837, 0.016272, -0.018042, 0.028584, 0.059364, 0.036816, 0.026049, -0.000944, 0.043875, -0.028652, 0.014108, -0.029798, 0.029641, -0.001149, 0.005549, 0.008922, 0.048061, 0.034923, 0.040804, 0.047688, -0.016267, 0.019174, -0.031403, 0.040005, 0.002881, 0.015506, 0.033651, 0.056214, 0.026740, -0.046428, 0.015121, 0.032484, 0.037090, 0.041282, -0.050814, -0.044930, -0.060566, -0.055042, -0.022209, 0.050859, 0.050077, -0.033203, -0.003859, 0.015669, 0.052129, 0.024539, 0.008198, -0.049075, 0.017396, -0.024285, 0.009651, 0.012793, -0.029332, -0.059277, 0.049427, 0.058549, -0.028417, -0.010332, 0.027357, 0.024398, -0.037834, -0.013770, -0.048824, -0.060135, -0.028011, 0.040896, -0.046657, 0.002061, -0.011252, 0.016865, -0.027746, 0.048768, 0.040690, -0.005999, 0.026829, -0.010525, -0.028169, 0.023341, -0.055735, 0.045146, -0.030510, 0.039075, -0.041351, 0.027926, 0.050447, -0.029868, -0.043551, -0.018642, 0.049076, 0.041249, 0.040715, 0.054509, -0.044875, -0.039280, -0.007043, 0.048531, -0.037953, -0.036442, -0.005528, 0.020571, 0.039115, -0.047786, 0.057120, -0.030487, -0.025793, 0.044072, -0.023881, -0.044430, -0.037436, -0.055493, -0.013615, 0.005223, 0.029868, -0.004974, 0.017745, 0.026571, 0.011021, -0.049043, -0.041769, 0.047312, 0.048063, 0.005843, 0.040181, -0.048341, -0.004601, 0.055362, 0.015612, -0.038830, 0.047370, -0.039238, 0.042931, -0.007249, 0.045359, -0.042385, 0.027476, -0.018663, 0.021690, 0.019966, 0.045423, 0.032905, 0.038731, 0.036631, -0.038776, -0.035681, -0.009476, 0.009902, -0.039432, 0.027417, 0.032753, -0.054449, -0.024181, -0.030394, -0.003448, 0.017040, -0.009826, 0.048477, 0.024465, -0.060240, 0.050988, 0.041492, -0.011301, 0.004858, -0.002249, -0.024848, 0.004031, 0.061509, 0.001708, 0.024833, -0.030234, 0.004785, 0.002453, 0.014914, -0.010995, 0.056647, 0.055068, -0.048848, 0.053511, 0.039149, -0.041441, -0.034068, 0.052979, -0.017898, 0.019137, 0.026348, 0.010029, -0.042427, -0.026119, 0.038214, -0.002582, -0.050687, 0.056606, 0.023254, 0.014742, -0.009982, 0.005948, -0.032877, 0.049263, -0.025988, 0.029590, 0.035368, -0.048448, -0.020565, 0.011323, 0.002994, -0.016477, 0.009610, -0.009047, 0.013720, -0.036628, -0.027866, 0.037230, -0.013381, 0.044639, 0.040313, -0.017192, -0.047683, 0.029784, 0.010951, 0.058951, 0.031705, 0.010851, -0.057950, -0.038374, 0.037873, 0.030927, 0.000147, 0.014459, -0.039112, -0.017218, -0.036915, 0.030837, 0.046517, -0.022331, 0.044270, 0.022851, 0.034299, 0.057972, 0.006359, 0.037039, 0.021253, -0.057824, 0.008781, 0.052378, -0.034393, 0.058357, -0.001171, -0.040721, -0.037057, -0.011596, -0.044473, -0.011605, -0.010442, -0.046641, 0.008376, -0.028492, 0.016395, -0.026563, -0.003231, 0.038881, 0.042811, 0.039149, -0.057038, 0.023901, -0.030465, -0.050417, 0.005841, -0.004639, -0.049339, 0.055055, -0.051094, 0.053339, 0.026734, -0.005124, 0.061573, -0.040919, -0.058757, 0.058253, -0.020890, -0.016434, 0.010628, -0.013465, -0.015342, -0.058976, -0.012663, -0.060375, -0.039232, 0.054286, -0.007977, -0.026598, -0.058735, 0.039850, 0.048146, -0.034284, -0.011533, 0.058827, -0.030296, 0.026251, -0.041165, -0.041249, -0.035485, -0.048654, -0.046315, 0.032171, 0.000298, 0.052228, -0.060661, 0.023584, 0.018806, -0.046240, 0.012596, 0.032327, -0.036657, 0.017845, 0.024446, -0.046062, 0.010166, 0.057214, -0.026620, -0.019304, -0.008023, 0.036878, 0.030884, 0.052206, -0.060176, -0.012288, -0.056875, -0.007107, 0.036355, -0.060573, 0.024614, 0.019084, -0.010927, 0.015185, -0.009865, -0.014205, -0.041354, 0.008033, 0.046611, 0.024893, -0.020266, -0.028240, -0.057005, 0.033627, -0.043276, -0.041431, 0.001127, 0.029488, -0.035004, 0.024958, -0.028309, -0.024459, 0.012980, 0.017830, 0.005987, 0.004239, 0.046485, -0.054176, -0.051986, 0.009767, -0.047848, -0.038788, 0.012701, -0.020583, -0.023087, 0.053002, -0.000575, 0.051536, -0.007128, -0.012533, -0.014485, 0.053367, 0.029845, -0.010753, -0.046777, -0.026972, -0.047866, -0.006574, 0.034514, -0.010356, -0.049385, 0.050708, -0.054018, -0.048169, -0.038484, -0.025331, -0.026155, -0.043973, -0.060664, 0.024770, -0.025037, 0.052836, 0.021296, 0.017958, 0.051167, -0.009384, -0.034540, 0.033575, 0.020808, -0.019526, 0.036409, 0.017190, -0.029870, 0.057653, -0.003756, 0.047902, -0.000268, 0.022734, -0.001085, 0.047797, -0.045383, -0.039247, 0.059473, -0.059583, 0.056423, -0.060264, -0.014225, 0.055757, 0.058546, -0.045156, 0.035608, 0.012423, -0.022349, -0.001735, -0.031418, -0.047973, -0.052947, 0.019840, 0.008022, -0.042251, -0.055669, 0.032055, -0.018849, -0.060808, 0.031595, -0.000759, -0.029204, -0.026518, 0.004466, -0.050742, 0.026298, 0.033253, -0.010997, 0.059314, 0.055919, -0.059010, 0.029818, -0.034031, 0.043601, 0.038701, 0.038158, 0.031129, -0.043650, 0.004600, -0.026556, 0.029265, -0.037216, 0.042504, 0.029973, -0.001879, -0.023803, 0.017152, 0.046676, 0.008011, -0.012771, -0.047215, 0.057835, 0.013048, 0.024107, 0.039819, -0.003567, -0.048666, -0.047028, 0.040553, 0.042340, 0.045489, -0.018444, 0.013189, -0.024143, 0.061517, 0.022739, 0.046088, 0.034867, 0.014152, 0.015985, 0.024428, -0.025893, -0.028919, 0.020210, 0.030649, 0.054793, 0.028481, -0.031161, -0.036472, -0.034319, 0.006119, 0.047886, 0.041242, 0.012166, 0.016775, 0.049634, 0.051867, -0.028186, 0.047778, -0.007369, 0.015989, 0.045891, 0.052826, -0.014150, -0.018803, -0.023611, -0.024145, -0.042517, 0.060021, 0.016417, -0.012106, -0.002162, 0.014771, -0.036062, 0.010665, 0.046959, 0.061058, -0.013267, 0.010758, 0.015729, 0.031479, 0.016915, 0.018338, -0.017958, 0.052140, -0.049023, -0.002188, -0.046463, 0.041431, 0.036665, 0.034501, -0.043082, -0.039165, 0.010690, -0.050997, -0.035205, 0.060777, 0.056754, -0.000910, -0.041336, 0.041657, 0.039484, -0.025063, 0.008346, 0.011074, -0.015619, 0.054310, 0.015055, -0.041144, 0.006458, 0.012458, -0.003684, -0.016463, 0.054574, 0.026918, 0.005136, -0.026772, -0.035445, 0.009089, 0.027776, 0.027098, 0.029158, -0.051564, -0.014697, -0.049388, -0.021902, -0.014367, 0.047073, -0.023174, 0.006112, -0.027353, 0.007531, -0.036919, -0.044470, -0.044213, 0.006993, 0.020734, 0.043968, -0.004044, -0.011052, 0.005917, 0.007585, -0.001117, -0.001897, -0.015493, 0.023890, 0.003766, 0.026157, 0.029889, 0.023862, -0.022250, -0.000273, -0.060013, 0.041721, -0.048554, 0.005065, -0.041328, 0.042066, -0.016341, -0.046441, 0.011269},
{-0.006630, 0.059282, -0.032525, 0.060814, 0.032385, 0.037280, 0.035458, -0.033426, -0.021260, 0.057209, 0.011989, 0.033486, -0.044879, 0.007364, -0.004172, 0.007339, -0.060499, 0.051992, 0.012856, 0.055489, -0.006280, -0.051754, 0.054115, 0.036729, 0.030749, -0.020413, 0.044428, 0.038772, -0.052670, 0.007149, 0.035349, -0.031238, 0.004877, -0.004534, -0.059769, -0.050671, -0.060124, -0.033974, 0.039335, 0.024450, 0.032116, -0.060084, 0.002069, -0.047174, 0.042905, 0.053461, 0.040764, 0.030490, -0.043368, 0.005393, -0.002561, 0.058669, -0.035654, -0.045809, 0.054788, 0.009473, 0.046735, 0.033160, 0.057779, 0.053704, 0.015861, 0.039423, -0.003743, -0.001508, 0.031881, -0.005787, 0.030476, 0.045890, -0.058350, -0.000400, 0.039585, -0.018499, -0.061724, 0.032247, -0.004816, -0.020667, 0.054785, -0.041179, 0.033413, 0.016533, -0.040992, -0.014807, -0.026341, -0.034273, 0.005748, 0.036948, -0.011286, -0.043248, -0.032875, 0.007481, -0.041429, 0.051963, -0.027840, -0.023622, 0.024878, -0.056891, 0.023692, 0.022692, 0.033134, -0.026399, 0.025849, 0.051755, 0.021915, 0.032189, 0.030965, -0.044984, 0.020322, 0.012775, 0.001513, -0.055755, 0.027734, 0.048252, -0.007411, 0.013847, -0.007474, 0.029234, 0.051415, -0.007406, 0.028289, 0.007009, -0.002096, -0.033781, 0.005802, -0.046337, -0.048341, 0.036719, -0.036912, -0.038907, -0.046459, -0.053046, 0.056282, 0.042688, 0.027537, -0.017449, -0.043252, -0.042031, -0.004320, 0.042642, -0.001542, -0.058094, -0.061346, -0.049325, 0.016110, -0.043294, 0.030135, 0.029877, -0.051331, 0.026742, -0.048663, 0.006494, -0.049738, 0.028188, -0.047741, 0.035573, -0.015514, 0.059996, 0.031603, -0.014584, -0.011319, 0.057498, 0.042145, -0.022522, -0.017861, 0.032986, 0.000972, -0.045882, -0.030883, 0.060037, 0.023961, 0.054205, -0.061012, 0.033480, -0.005153, 0.009471, 0.001796, 0.049616, 0.018254, 0.034454, -0.000953, -0.039168, -0.016175, -0.054420, -0.056165, -0.028235, 0.013984, 0.029497, 0.022415, -0.017654, 0.042246, -0.024091, -0.030642, 0.018510, -0.032593, -0.034583, -0.012225, 0.017081, -0.047832, 0.056623, 0.039177, -0.057772, -0.017464, 0.042599, -0.009316, -0.012804, -0.005209, -0.008673, 0.015347, 0.005429, 0.003258, -0.052175, 0.056466, -0.052418, 0.056571, 0.060818, -0.028189, 0.025561, -0.046537, -0.053051, -0.040889, -0.007605, -0.031517, 0.001150, 0.019892, 0.051390, 0.015786, 0.021290, 0.033521, 0.055725, -0.003825, 0.037809, -0.060759, -0.006947, 0.045899, 0.009694, -0.017938, 0.040316, -0.009053, 0.055786, -0.061074, 0.000356, 0.039673, 0.030377, 0.007298, 0.024126, 0.049251, -0.045652, 0.028369, 0.016268, 0.059351, 0.026760, 0.010659, -0.024735, -0.004750, 0.015517, -0.040122, 0.015417, -0.012108, -0.024457, 0.044384, 0.019765, -0.003396, 0.005944, -0.057096, 0.031158, -0.036977, 0.061442, 0.000363, -0.028880, 0.036979, 0.058478, -0.006421, 0.004103, 0.017543, -0.051948, -0.025174, -0.020937, -0.047549, 0.026897, -0.038245, -0.032915, 0.007343, -0.044841, -0.055136, -0.011422, 0.053452, -0.047282, 0.018975, -0.049343, 0.060427, 0.043309, -0.037993, -0.059710, -0.048240, 0.004432, -0.029062, -0.028322, -0.016479, 0.023739, 0.041509, -0.023275, -0.046964, 0.003739, 0.003148, 0.026311, 0.025001, -0.026971, -0.039684, 0.049722, -0.028721, -0.001557, 0.049032, -0.059332, 0.020573, -0.006307, -0.010176, 0.060181, 0.011639, -0.036408, 0.043332, 0.031857, 0.030800, 0.010479, 0.042064, -0.045153, 0.016132, 0.044228, -0.044226, -0.023139, -0.037725, -0.017829, 0.013799, 0.012658, -0.021885, 0.017022, 0.012065, 0.001258, -0.007236, 0.048968, -0.033464, 0.028125, -0.045557, 0.056150, 0.040176, -0.025316, -0.003911, 0.021782, -0.025189, 0.039895, -0.040801, 0.013161, -0.033044, -0.037711, 0.055574, -0.049261, -0.058973, -0.033383, 0.026384, 0.060131, 0.030674, -0.013387, -0.034087, -0.016917, -0.047399, 0.036452, -0.051729, -0.004634, 0.011278, 0.027988, -0.020080, -0.043056, 0.037838, 0.028655, -0.028414, 0.003816, -0.007584, 0.038523, 0.047614, 0.037701, -0.042769, 0.018184, -0.038257, 0.022878, 0.018755, -0.002677, -0.058287, -0.034984, 0.000171, 0.001378, -0.041583, 0.051077, -0.044508, -0.018868, 0.029736, 0.010412, -0.008049, 0.020121, 0.042835, -0.044514, -0.040896, -0.042387, -0.024007, -0.011542, 0.017716, -0.044592, 0.057320, 0.021844, 0.045016, 0.057493, 0.014874, -0.017947, 0.022512, 0.018892, -0.020875, 0.035458, -0.041105, -0.020685, 0.013549, -0.016237, -0.048314, 0.040223, 0.058012, -0.054735, -0.019124, -0.038419, 0.024858, 0.054464, -0.023279, -0.002236, -0.015150, 0.009339, 0.017307, 0.032991, 0.045605, 0.010586, -0.036851, 0.052043, -0.002362, 0.051765, -0.055413, 0.047181, -0.053182, 0.045756, -0.000082, 0.050857, -0.010427, -0.002629, -0.035722, 0.040772, -0.009732, 0.058595, -0.044179, 0.046718, -0.026239, 0.016002, 0.024051, 0.039983, 0.005834, 0.061394, 0.026318, -0.044400, -0.024684, 0.043666, 0.016451, -0.030904, -0.057935, 0.020851, -0.009343, -0.044956, -0.010772, -0.025792, -0.034614, 0.021576, -0.018574, -0.020039, -0.049420, -0.027815, 0.059208, 0.060120, -0.034401, 0.061504, 0.015603, -0.002391, -0.015583, -0.041816, -0.057811, -0.035576, -0.028847, 0.039886, 0.023651, 0.054590, 0.022100, 0.048323, -0.007672, -0.012552, -0.053274, 0.021157, -0.021336, -0.033579, -0.012643, 0.053088, 0.056560, 0.032236, 0.001435, 0.034354, 0.035838, -0.009888, -0.054688, 0.045594, -0.000617, -0.037756, -0.051022, 0.048722, -0.048475, -0.038876, 0.027536, 0.002202, -0.000560, -0.026031, -0.002343, 0.018916, 0.047529, -0.034314, 0.060042, 0.012498, 0.018329, -0.016402, 0.019825, 0.028663, -0.050487, 0.052265, -0.048282, 0.008580, 0.010771, 0.060291, 0.024111, 0.054616, -0.000628, -0.022858, 0.012636, 0.008621, 0.044296, -0.037840, 0.054654, -0.045850, 0.016866, -0.060317, -0.054528, -0.024550, 0.024200, -0.023693, -0.021518, -0.043874, 0.040663, -0.054551, 0.041229, -0.021688, 0.000436, -0.039377, -0.032914, 0.050884, -0.030943, 0.026360, 0.055210, 0.034034, -0.029158, 0.010725, 0.040319, 0.000674, 0.005592, 0.027767, -0.010297, -0.021977, -0.020989, -0.012996, -0.025611, 0.024372, 0.058304, -0.054385, -0.005769, 0.048820, 0.002211, 0.000379, 0.030223, -0.005242, 0.050697, 0.028426, 0.052391, -0.005928, -0.022888, 0.057180, 0.044403, 0.054691, 0.011451, 0.038150, 0.000192, 0.035148, -0.029257, 0.021851, 0.051286, 0.039114, -0.044723, 0.027953, -0.004611, 0.048497, -0.059783, 0.030625, 0.022957, -0.049158, -0.038275, 0.051946, -0.041203, -0.004665, -0.004754, 0.028277, 0.010314, -0.036719, -0.029970, 0.036009, 0.010619, -0.054296, -0.060084, 0.042718, 0.006596, -0.059586, -0.025156, 0.029412, 0.041836, -0.031498, -0.042584, -0.010090, -0.057043, -0.043483, -0.042871, 0.026887, 0.056030, -0.026300, 0.014578, 0.037333, 0.011934, 0.009504, 0.013310, -0.048296, 0.017131, -0.024451, -0.017416, -0.016171, -0.034720, -0.033936, 0.021321, -0.027615, -0.038568, 0.038748, 0.035607, -0.051482, 0.045143, 0.045750, -0.005236, -0.053646, 0.036971, -0.057924, 0.036123, 0.043972, 0.057468, -0.061259, 0.050444, -0.059969, -0.026324, 0.037255, -0.044109, -0.056477, -0.034380, -0.005094, -0.010663, -0.058646, 0.058130, -0.030379, -0.047503, -0.018388, -0.021968, -0.023656, -0.027173, -0.058745, 0.017688, 0.036991, 0.029561, -0.048490, -0.058126, -0.046017, 0.007771, 0.016533, -0.005645, -0.010783, -0.055509, 0.016723, 0.050581, -0.011155, 0.056473, 0.037498, 0.034052, -0.049280, -0.041175, 0.040525, -0.047865, -0.025050, -0.014054, -0.059864, 0.000385, 0.030965, 0.037193, 0.019287, -0.053436, 0.046045, -0.013979, 0.012515, -0.045324, 0.055660, 0.033826, -0.039975, 0.040904, -0.032857, -0.047139, 0.012957, -0.014927, 0.011424, -0.049543, -0.015498, -0.022637, -0.039661, 0.003179, -0.038307, -0.011994, -0.015609, 0.015440, -0.043907, -0.021706, -0.031312, -0.053376, -0.014864, -0.031575, 0.023262, -0.028046, 0.054163, 0.049450, -0.038011, -0.024537, -0.033685, 0.056157, 0.012514, -0.035551, 0.006956, -0.007844, 0.004410, 0.023187, 0.030520, 0.058541, -0.005229, -0.013184, -0.054722, 0.044663, -0.055190, 0.022817, 0.026932, -0.011784, 0.005406, 0.032719, -0.001178, 0.058980, 0.031422, -0.010563, -0.036535, -0.004847, 0.054921, -0.058956, 0.015666, -0.058385, 0.025720, 0.032762, -0.001652, 0.007614, -0.049215, -0.038022, -0.033994, 0.046035, -0.033198},
{0.005893, -0.038828, -0.019709, -0.043364, -0.047646, 0.057238, 0.046662, 0.016185, 0.042604, -0.039135, -0.037731, -0.016332, -0.024943, 0.044787, -0.024188, -0.056173, -0.059087, 0.043999, 0.022341, -0.028276, 0.034383, -0.014563, -0.016450, -0.053341, -0.011873, 0.028393, -0.027251, 0.034947, 0.045184, 0.022371, -0.000588, 0.025602, 0.041132, -0.027362, -0.027065, -0.033196, 0.055303, 0.012197, -0.004255, 0.049835, 0.041575, -0.052203, 0.042484, 0.057961, -0.013202, 0.006724, 0.043369, -0.047858, -0.035409, -0.040670, -0.016154, -0.017903, -0.059710, 0.013016, -0.038667, 0.031441, -0.037597, -0.060798, -0.030009, 0.029295, 0.018635, -0.006018, 0.003196, -0.002942, 0.005976, 0.029657, 0.003871, -0.021188, -0.021129, -0.034411, 0.015975, 0.012623, 0.039278, -0.040908, 0.026941, -0.015798, 0.032902, 0.030028, 0.020022, 0.006609, 0.024106, -0.041085, -0.054676, -0.020285, 0.014203, -0.006173, -0.035875, -0.045475, 0.052833, -0.014765, 0.022066, -0.030874, 0.013299, -0.029020, -0.044992, 0.033519, 0.031103, 0.000003, 0.034618, 0.042190, 0.011857, 0.030447, -0.003554, -0.005815, -0.013453, 0.022618, 0.003870, 0.038318, -0.020749, 0.008055, -0.033338, -0.055018, 0.048425, -0.036949, -0.034204, 0.024682, -0.043994, 0.026215, 0.034450, -0.007688, 0.013600, 0.055403, 0.046836, 0.020946, 0.011057, 0.045958, 0.028495, -0.014971, -0.051878, 0.056656, -0.014244, -0.059577, 0.051767, 0.025832, -0.030539, -0.045752, -0.021632, -0.012728, -0.009032, -0.007143, 0.010455, -0.036852, 0.021166, -0.036500, 0.041364, -0.005809, 0.018482, -0.017738, -0.050568, -0.060448, -0.054174, -0.003103, 0.047888, -0.021931, -0.048468, 0.028845, 0.037896, -0.020524, -0.022936, -0.053533, 0.023177, 0.028572, -0.025880, 0.022594, 0.010435, 0.005954, 0.038628, 0.040282, 0.030941, 0.041907, -0.028346, 0.009265, -0.033326, -0.053757, 0.057967, -0.041055, -0.043689, -0.024845, 0.004797, 0.015070, -0.039937, 0.012742, 0.019383, -0.011959, -0.008779, 0.032759, 0.055263, -0.033550, 0.031620, 0.035577, -0.003922, 0.058442, 0.004916, 0.016375, -0.002345, -0.056386, -0.037465, 0.049891, 0.048272, -0.036931, 0.042543, 0.007964, -0.022773, 0.053687, -0.060911, 0.007207, 0.014488, 0.045630, -0.048849, -0.024843, 0.005084, -0.055800, -0.055601, 0.045535, 0.038156, -0.009827, 0.054542, 0.056637, 0.023543, -0.041577, 0.052271, -0.050300, -0.037232, -0.022902, -0.004400, 0.039099, 0.034358, -0.033602, 0.001230, 0.053275, 0.055698, -0.001840, 0.022131, 0.046864, 0.023624, 0.043895, -0.046590, -0.044464, 0.052067, 0.046408, -0.047712, -0.004643, 0.049812, -0.054998, 0.029735, 0.025371, 0.043280, 0.022239, -0.044046, -0.036620, 0.047550, 0.016729, 0.036458, 0.002430, 0.046251, -0.042004, -0.035961, -0.025209, -0.029298, 0.056077, -0.052841, 0.044283, 0.015463, 0.058917, -0.049343, 0.031028, -0.031187, -0.013553, 0.043640, 0.043720, -0.012552, 0.048523, 0.032579, 0.025087, 0.025969, -0.012952, 0.041592, 0.035485, -0.008952, 0.044595, -0.024575, 0.034224, 0.005544, 0.035816, 0.060192, -0.046798, -0.018053, -0.002052, 0.041252, 0.001187, -0.051327, -0.054055, 0.039302, -0.058722, 0.005303, -0.016070, -0.011654, -0.010820, 0.057505, 0.001326, -0.014684, -0.047134, -0.021026, 0.002756, -0.013075, -0.019030, -0.001858, -0.032253, 0.036210, 0.047747, -0.025172, -0.060713, -0.045305, -0.025536, 0.003843, -0.046779, 0.003202, -0.052192, -0.029993, -0.033450, 0.040925, -0.000078, -0.008119, -0.019588, 0.033249, -0.026031, 0.017439, -0.021944, -0.049275, 0.007573, -0.032514, -0.029472, -0.037847, 0.017150, 0.006130, -0.056477, 0.045425, 0.030746, 0.005516, -0.059154, -0.052558, -0.021503, -0.049042, 0.029268, -0.050370, -0.054418, 0.041132, 0.027609, -0.051352, 0.029463, -0.058733, 0.059156, 0.031478, -0.060741, -0.010136, -0.000388, 0.026359, 0.048181, -0.044286, 0.048893, -0.037270, -0.013803, 0.038935, 0.026419, -0.035684, 0.038815, 0.059096, 0.015478, -0.056377, 0.012865, -0.060152, 0.056388, 0.050472, -0.012155, 0.017066, 0.004874, 0.019641, 0.042700, 0.049098, 0.000024, 0.034922, 0.056717, 0.032220, 0.050029, 0.024197, -0.048445, 0.016834, 0.000738, 0.002236, -0.016006, -0.054045, 0.047160, 0.040234, 0.021813, 0.015483, 0.042662, -0.006294, 0.008608, -0.033246, -0.056932, -0.012338, -0.049443, -0.006809, -0.032442, 0.051842, 0.035994, -0.003510, -0.017580, -0.050750, -0.051910, 0.050565, 0.029321, 0.002306, 0.021350, 0.038265, 0.000208, -0.051129, 0.048554, -0.040350, 0.016123, -0.029877, -0.048202, 0.046911, 0.048860, -0.003282, -0.016448, 0.008066, -0.032345, -0.047076, 0.043445, -0.045548, -0.004603, 0.030815, 0.010539, -0.024788, 0.007688, 0.029550, 0.053417, -0.027327, -0.017559, -0.000985, -0.000315, -0.010345, -0.041978, -0.007864, -0.047052, 0.039444, 0.013940, 0.036359, 0.028211, -0.038339, 0.014515, -0.054250, -0.032437, 0.041225, -0.041415, 0.043158, 0.029185, 0.000644, 0.025962, -0.056788, 0.027752, -0.038748, 0.051768, -0.042589, -0.016909, 0.040829, 0.048810, 0.026730, -0.048946, -0.031274, 0.003086, 0.020538, 0.061272, 0.042279, -0.008326, -0.020201, 0.032321, -0.031617, 0.019163, -0.007566, 0.045603, -0.021761, -0.040392, 0.026596, -0.060063, 0.054673, -0.060522, 0.053966, -0.021883, -0.061536, 0.023583, -0.043161, 0.047811, -0.008889, 0.045941, -0.043178, -0.000737, -0.058836, 0.008289, 0.047917, 0.009889, -0.010423, 0.028007, 0.060704, -0.054758, -0.014079, -0.045594, -0.012321, -0.053673, 0.023126, -0.028058, 0.012517, -0.051611, 0.032787, 0.019200, -0.020891, 0.057387, 0.057062, 0.056800, -0.002310, -0.057662, -0.027980, -0.027936, -0.010424, 0.002830, 0.038154, 0.041169, -0.040564, -0.047407, -0.056595, -0.040864, 0.032910, 0.038014, 0.017664, -0.034200, -0.057485, 0.014532, -0.051340, -0.007745, -0.017474, -0.008373, 0.018533, 0.039515, -0.047295, 0.002368, -0.007196, -0.005346, 0.013838, -0.048398, 0.048471, -0.007363, 0.033682, -0.047271, 0.026455, 0.051011, -0.022392, -0.040156, -0.028654, 0.008460, -0.037834, -0.004237, 0.044397, -0.004306, 0.029953, 0.034717, -0.055569, -0.052882, -0.017206, -0.045251, 0.000400, -0.027260, 0.059806, 0.000025, -0.015160, 0.010118, 0.020247, -0.012880, -0.008695, -0.058736, -0.060316, -0.005046, 0.050265, -0.045401, -0.024305, -0.027588, 0.048954, -0.040516, 0.008433, 0.003824, 0.027693, -0.008775, -0.009491, 0.015618, 0.020923, -0.027093, 0.013881, 0.031905, 0.040614, -0.009884, 0.022806, -0.013441, -0.023438, 0.005678, 0.013024, -0.033498, -0.001471, 0.044570, -0.041018, 0.037123, 0.004555, -0.035397, -0.052852, -0.023523, 0.001398, 0.015784, 0.056331, 0.036942, 0.047466, -0.043616, -0.039881, 0.056485, 0.015334, -0.019405, 0.018843, 0.036425, -0.023149, -0.039019, 0.042463, 0.027953, -0.026039, -0.031994, 0.004675, 0.060240, 0.002752, -0.038541, -0.006919, -0.061679, 0.058987, 0.057162, -0.055175, -0.034729, -0.047000, -0.014363, 0.060947, -0.042780, -0.029492, -0.010374, 0.019509, 0.021437, 0.060243, -0.044461, -0.001722, 0.057947, -0.028611, -0.035979, -0.001966, 0.008450, 0.005326, -0.046647, -0.040854, 0.049350, 0.045376, -0.036283, 0.033612, -0.059614, -0.018356, -0.000770, 0.040603, -0.057137, -0.022864, 0.006766, 0.033496, -0.045113, -0.048271, -0.027047, -0.022133, 0.007926, -0.035453, 0.055832, 0.020351, 0.004242, -0.027980, 0.030659, -0.037999, 0.055394, -0.049426, -0.015450, 0.010935, 0.052872, 0.015989, 0.058807, -0.005064, -0.047474, 0.047540, 0.037744, -0.015305, 0.060443, 0.055820, -0.021248, -0.019200, -0.008938, 0.016110, -0.005659, -0.014552, -0.058640, 0.056098, 0.030205, 0.041176, 0.053233, 0.019497, -0.014559, 0.024857, 0.050728, -0.049888, 0.033734, 0.036698, 0.008921, 0.051926, -0.002276, 0.048115, -0.014782, -0.032642, -0.037026, 0.042469, -0.002314, 0.009961, -0.031998, -0.004434, -0.009215, 0.016171, 0.056989, -0.021776, 0.004713, 0.018849, -0.028033, -0.010541, -0.033235, 0.000838, -0.042585, -0.019978, -0.001332, -0.021085, -0.028307, -0.022754, 0.040038, 0.044212, 0.008980, 0.031871, 0.039465, -0.039322, -0.054274, 0.018384, 0.038383, 0.007029, 0.037374, -0.045623, -0.021705, 0.026859, 0.003262, -0.020750, 0.024812, 0.006049, 0.026042, 0.052564, 0.021665, -0.017393, -0.006596, 0.004709, -0.016589, 0.009521, 0.034862, -0.021555, -0.047697, 0.034920, -0.021874, 0.041499, 0.047561, -0.027458, -0.039717, -0.035590, 0.038083, -0.035860, -0.017312},
{-0.038688, 0.013501, 0.046740, -0.015872, -0.038736, 0.043988, 0.002595, -0.049863, -0.039202, 0.050277, 0.019479, 0.051553, -0.023539, 0.038572, 0.039736, -0.027105, -0.045541, -0.046605, -0.057650, 0.018287, 0.038623, 0.020183, 0.059081, -0.019055, 0.052688, -0.026065, -0.000949, 0.033928, -0.042411, -0.042500, 0.023919, -0.032004, 0.029680, -0.007140, -0.013298, 0.032687, 0.012127, 0.059641, 0.006598, -0.005314, -0.050741, -0.020110, 0.014278, -0.032877, 0.012388, 0.024452, -0.006899, -0.048320, 0.057618, -0.030219, 0.008136, 0.026921, 0.019075, -0.018972, 0.039820, -0.007851, -0.043845, -0.061033, -0.035658, 0.020598, 0.022304, -0.051881, -0.027361, 0.032151, -0.006753, -0.052034, 0.019570, -0.045079, 0.020182, 0.044393, 0.038345, -0.006946, 0.000278, -0.020551, 0.021400, -0.060191, -0.019018, 0.034171, 0.046563, -0.006919, -0.008833, 0.013398, 0.046352, 0.015646, 0.015314, 0.037230, 0.039599, -0.054596, 0.050657, 0.021790, 0.004267, 0.035547, 0.005468, -0.012447, 0.002553, -0.049368, -0.011536, -0.045966, -0.010251, 0.033448, 0.012482, 0.046719, -0.015607, 0.024946, -0.002621, -0.050801, 0.046205, -0.054401, 0.022219, -0.053661, -0.014003, -0.012557, 0.000482, 0.025513, 0.014619, 0.047302, -0.039850, -0.055373, -0.033431, -0.046073, -0.061820, 0.001230, -0.048380, -0.033613, -0.007767, -0.026631, -0.019429, -0.022705, -0.002721, 0.015664, 0.043602, 0.036528, 0.054607, -0.006503, -0.038503, 0.050783, 0.054758, 0.015275, 0.060824, 0.014724, -0.032028, 0.042349, 0.002252, 0.007919, 0.022027, 0.040194, 0.048449, -0.044143, 0.028227, -0.048602, -0.017878, -0.001470, -0.018118, -0.017032, 0.058617, -0.041822, 0.013053, -0.046163, 0.035756, -0.055939, -0.023526, -0.010004, 0.035346, -0.009600, 0.037265, 0.030428, 0.031581, -0.036388, 0.005393, -0.012027, 0.052991, -0.032215, -0.042978, 0.017852, 0.005056, -0.055438, -0.020755, -0.040947, -0.052146, -0.036186, -0.005413, 0.052103, -0.041786, 0.011874, -0.034814, -0.024452, -0.003240, 0.020396, 0.038310, 0.025476, -0.033914, 0.014668, 0.047606, -0.045034, -0.048234, -0.021656, 0.039204, -0.014832, 0.025525, -0.000726, 0.025634, -0.056799, 0.055881, 0.010986, 0.011526, -0.028237, 0.012588, -0.014743, 0.006338, 0.043286, 0.015022, 0.017535, -0.052227, -0.041850, 0.010298, 0.053021, 0.024517, 0.046937, 0.019834, 0.004853, 0.059155, -0.059337, 0.028243, 0.052506, 0.006768, 0.016284, -0.041607, 0.051791, -0.045572, -0.004786, 0.012875, -0.019633, -0.041866, -0.044360, 0.018917, -0.055105, 0.023284, -0.052910, 0.050551, 0.030997, -0.056373, -0.048137, 0.035293, 0.059602, -0.045366, 0.027344, 0.017376, 0.058645, 0.039535, 0.000241, -0.033706, -0.029790, 0.009463, -0.004715, 0.010511, 0.015474, 0.054008, -0.048096, 0.036153, 0.053862, -0.001595, -0.041236, -0.053906, -0.018068, 0.008941, 0.014247, 0.008035, 0.041862, -0.005951, -0.004327, -0.036245, -0.054349, 0.017509, 0.013150, -0.039399, -0.015134, 0.020325, -0.001521, -0.035784, -0.004836, 0.023007, 0.050651, 0.029644, 0.007619, -0.003601, -0.059677, 0.016420, 0.003057, 0.046273, -0.041342, -0.008329, -0.027972, -0.057891, -0.027537, 0.017431, -0.026111, -0.016414, -0.014709, -0.013074, -0.012202, -0.061714, -0.026388, 0.018787, -0.035619, -0.014637, -0.001785, -0.015350, -0.015547, 0.013958, -0.041721, -0.021758, -0.001295, -0.046864, -0.027344, -0.011430, -0.013186, 0.053902, 0.058442, -0.059788, -0.044392, -0.038222, -0.038007, 0.005532, -0.014049, 0.058978, -0.013863, -0.038461, 0.031513, -0.017306, 0.009915, 0.052666, -0.053473, 0.028724, -0.032033, -0.005688, -0.048453, -0.061462, 0.013173, 0.023648, -0.023427, -0.048044, 0.061100, 0.058194, -0.036897, 0.009083, -0.036091, -0.017778, -0.029761, -0.026269, -0.056340, 0.038937, -0.021214, 0.000786, 0.057519, 0.061384, -0.045095, -0.046543, 0.023747, 0.023403, -0.058117, 0.034202, -0.003725, -0.030393, 0.041908, 0.043214, 0.061505, -0.021639, 0.052920, -0.036574, -0.001422, -0.036870, 0.039470, 0.054004, 0.004230, 0.055490, -0.051381, 0.033440, -0.045816, 0.022635, -0.045319, 0.023205, 0.038545, -0.011666, 0.012300, -0.020072, -0.049176, 0.020249, 0.048900, 0.020401, 0.017637, 0.059226, -0.057409, -0.045015, 0.026321, 0.043773, -0.016832, -0.050638, 0.016143, 0.006191, 0.044177, -0.033069, -0.027355, 0.029663, 0.003878, 0.011313, 0.039872, -0.028612, 0.020860, -0.051275, -0.033614, -0.017726, 0.038488, -0.013356, -0.051053, 0.009260, -0.012003, 0.036915, -0.017242, -0.008940, -0.060171, 0.016931, -0.017934, -0.039631, -0.041048, 0.059300, 0.012382, 0.020899, 0.034065, 0.056132, -0.019318, -0.055846, 0.055952, -0.029641, 0.051554, 0.027405, 0.035254, -0.045854, -0.048539, 0.030032, 0.032401, -0.010945, 0.011601, 0.009614, -0.006497, -0.003529, -0.036692, -0.056446, 0.033437, 0.031774, -0.041678, 0.013253, 0.060587, 0.027663, 0.010093, -0.037303, 0.015222, 0.032593, -0.027741, 0.021399, 0.057455, 0.021518, 0.004233, -0.023252, 0.020273, -0.007789, 0.022882, -0.034993, 0.026675, 0.061188, -0.031835, -0.021899, -0.006773, 0.002651, -0.005098, -0.054487, 0.012413, -0.046279, -0.007354, -0.020619, -0.015852, -0.050660, 0.017852, -0.014128, -0.035692, 0.027265, -0.010264, 0.031112, -0.047262, -0.047996, 0.056753, 0.026056, 0.018614, 0.032273, -0.002873, 0.052718, 0.054043, 0.032307, -0.034932, -0.009251, -0.052219, -0.016030, 0.005533, 0.056234, -0.032368, 0.058131, -0.011432, 0.034036, 0.037486, 0.000181, 0.034599, -0.015827, -0.009747, 0.026863, 0.035445, 0.020368, 0.025142, -0.024032, 0.056130, -0.052764, -0.014701, 0.022625, -0.048592, -0.034433, -0.048805, 0.016071, 0.039971, -0.013841, -0.039517, 0.049809, -0.032363, -0.001139, -0.023050, 0.055483, 0.018559, -0.013085, 0.013439, -0.000364, -0.035748, 0.012277, -0.006221, -0.057705, -0.012591, 0.045636, 0.042537, 0.000195, 0.032125, 0.059311, -0.013517, -0.057241, 0.041598, -0.020284, 0.021325, 0.057595, -0.060672, -0.016278, -0.038162, -0.015056, -0.036317, 0.004648, -0.049974, -0.040198, -0.002583, -0.037207, -0.054436, -0.032712, 0.016905, -0.004022, -0.042668, 0.001378, 0.026954, 0.003999, -0.019947, 0.007336, 0.045787, -0.033617, 0.018097, -0.061852, -0.010919, -0.036245, 0.029823, 0.051338, 0.027132, 0.013207, -0.034868, -0.042031, 0.055501, 0.051670, -0.002317, -0.018029, 0.008556, 0.008287, 0.040565, -0.028711, 0.050312, 0.002520, 0.014105, 0.029767, 0.046432, -0.049376, 0.018042, -0.002898, 0.048870, 0.016906, 0.027782, 0.052792, -0.058669, 0.040648, -0.005255, -0.005735, -0.030615, 0.054645, -0.009825, -0.005677, -0.040202, -0.049284, -0.038765, -0.043997, -0.029719, -0.042750, -0.016743, -0.045323, -0.024573, -0.023585, 0.008179, -0.046850, 0.018301, -0.057077, -0.040023, -0.033659, 0.059108, -0.001153, 0.021812, 0.052087, -0.040093, -0.059228, -0.029617, 0.036789, -0.032853, 0.058940, -0.020976, -0.058504, 0.054563, 0.047001, -0.030331, -0.020785, -0.048968, 0.039623, 0.035345, 0.050806, -0.050028, 0.050518, -0.011935, -0.007585, -0.012290, 0.046137, -0.046978, 0.003132, 0.026009, 0.031865, 0.021436, -0.053985, -0.022994, 0.016797, 0.020220, 0.049182, 0.001197, -0.008171, -0.027396, 0.056803, 0.009926, -0.008857, -0.049025, 0.030401, -0.060133, 0.002452, -0.055307, -0.043544, 0.058148, -0.050419, -0.041985, 0.018911, 0.011502, 0.056628, -0.011050, 0.029053, 0.015298, 0.029743, -0.060969, -0.021854, 0.055730, -0.053940, -0.043880, -0.027804, 0.003433, -0.052687, 0.024612, -0.006323, -0.061114, 0.009442, -0.053344, -0.008826, 0.028762, 0.052237, 0.059418, -0.019274, 0.042977, 0.061831, 0.004703, -0.003175, 0.003136, 0.016337, 0.026495, -0.051682, -0.032242, 0.007236, 0.002533, -0.046426, 0.052941, 0.027672, 0.058087, 0.003812, -0.012804, -0.059853, 0.040924, 0.007878, -0.056070, 0.058425, -0.055764, -0.017258, 0.041114, 0.005331, 0.031737, -0.009496, -0.002929, 0.006031, 0.022049, 0.008260, -0.058894, 0.024343, -0.046020, 0.052549, 0.009350, 0.011935, 0.009388, -0.031694, 0.029602, -0.058144, -0.025320, -0.036812, -0.021586, 0.029266, 0.025772, 0.039982, -0.060517, -0.009739, 0.060435, 0.043934, -0.024778, 0.023523, 0.004686, -0.018627, 0.033960, -0.041588, -0.009698, 0.001084, 0.010039, 0.038402, 0.018868, -0.050750, -0.006859, -0.032439, 0.061424, 0.032406, 0.037446, 0.059593, -0.055316, 0.061428, -0.008283, 0.048481, -0.055495, 0.033491, 0.010822, -0.022870, -0.027626},
